{"loss": 0.005253048786244108, "_timestamp": 1709084580.2884562, "_runtime": 374.42722630500793, "_step": 90, "parameters/conv1.weight": {"_type": "histogram", "values": [2.0, 1.0, 0.0, 1.0, 2.0, 5.0, 0.0, 6.0, 3.0, 6.0, 11.0, 18.0, 10.0, 9.0, 18.0, 17.0, 21.0, 21.0, 16.0, 21.0, 22.0, 26.0, 23.0, 14.0, 26.0, 30.0, 22.0, 27.0, 33.0, 24.0, 28.0, 24.0, 20.0, 15.0, 24.0, 19.0, 20.0, 15.0, 21.0, 20.0, 18.0, 17.0, 16.0, 12.0, 14.0, 18.0, 15.0, 12.0, 5.0, 11.0, 6.0, 5.0, 3.0, 0.0, 2.0, 2.0, 1.0, 0.0, 0.0, 0.0, 0.0, 1.0, 0.0, 1.0], "bins": [-0.38074299693107605, -0.3674866259098053, -0.35423022508621216, -0.3409738540649414, -0.32771748304367065, -0.3144610822200775, -0.30120471119880676, -0.287948340177536, -0.27469193935394287, -0.2614355683326721, -0.24817919731140137, -0.23492281138896942, -0.22166642546653748, -0.20841005444526672, -0.19515366852283478, -0.18189729750156403, -0.16864091157913208, -0.15538452565670013, -0.14212815463542938, -0.12887176871299744, -0.11561539024114609, -0.10235901176929474, -0.08910262584686279, -0.07584624737501144, -0.0625898689031601, -0.049333490431308746, -0.0360771082341671, -0.0228207278996706, -0.009564347565174103, 0.0036920327693223953, 0.016948413103818893, 0.03020479343831539, 0.04346117377281189, 0.05671755224466324, 0.06997393071651459, 0.08323031663894653, 0.09648669511079788, 0.10974307358264923, 0.12299945950508118, 0.13625583052635193, 0.14951221644878387, 0.16276860237121582, 0.17602497339248657, 0.18928135931491852, 0.20253774523735046, 0.21579411625862122, 0.22905050218105316, 0.2423068732023239, 0.25556325912475586, 0.2688196301460266, 0.28207603096961975, 0.2953324019908905, 0.30858877301216125, 0.3218451738357544, 0.33510154485702515, 0.3483579158782959, 0.36161428689956665, 0.3748706877231598, 0.38812705874443054, 0.4013834297657013, 0.41463983058929443, 0.4278962016105652, 0.44115257263183594, 0.4544089734554291, 0.46766534447669983]}, "parameters/conv1.bias": {"_type": "histogram", "values": [2.0, 0.0, 0.0, 0.0, 0.0, 0.0, 0.0, 0.0, 0.0, 0.0, 0.0, 0.0, 0.0, 0.0, 1.0, 1.0, 1.0, 2.0, 0.0, 0.0, 0.0, 0.0, 2.0, 0.0, 1.0, 0.0, 0.0, 0.0, 0.0, 1.0, 2.0, 3.0, 2.0, 2.0, 2.0, 0.0, 0.0, 0.0, 0.0, 0.0, 1.0, 1.0, 1.0, 0.0, 0.0, 0.0, 1.0, 1.0, 1.0, 0.0, 3.0, 0.0, 0.0, 0.0, 0.0, 0.0, 0.0, 0.0, 0.0, 0.0, 0.0, 0.0, 0.0, 1.0], "bins": [-0.4219173192977905, -0.41535475850105286, -0.4087921679019928, -0.4022296071052551, -0.39566701650619507, -0.3891044557094574, -0.38254186511039734, -0.37597930431365967, -0.3694167137145996, -0.36285415291786194, -0.3562915623188019, -0.3497290015220642, -0.34316641092300415, -0.3366038501262665, -0.3300412595272064, -0.32347869873046875, -0.3169161081314087, -0.310353547334671, -0.30379098653793335, -0.2972283959388733, -0.2906658351421356, -0.28410324454307556, -0.2775406837463379, -0.27097809314727783, -0.26441553235054016, -0.2578529417514801, -0.25129038095474243, -0.24472780525684357, -0.2381652295589447, -0.23160265386104584, -0.22504007816314697, -0.2184775024652481, -0.21191492676734924, -0.20535236597061157, -0.1987897902727127, -0.19222721457481384, -0.18566463887691498, -0.1791020631790161, -0.17253948748111725, -0.16597691178321838, -0.15941433608531952, -0.15285176038742065, -0.1462891846895218, -0.13972660899162292, -0.13316403329372406, -0.1266014575958252, -0.12003888934850693, -0.11347631365060806, -0.1069137379527092, -0.10035116225481033, -0.09378858655691147, -0.0872260108590126, -0.08066343516111374, -0.07410086691379547, -0.0675382912158966, -0.06097571551799774, -0.05441313982009888, -0.04785056412220001, -0.04128798842430115, -0.03472541645169258, -0.028162840753793716, -0.02160026505589485, -0.015037690289318562, -0.008475115522742271, -0.001912540988996625]}, "parameters/conv2.weight": {"_type": "histogram", "values": [9.0, 3.0, 4.0, 5.0, 8.0, 10.0, 13.0, 16.0, 27.0, 29.0, 41.0, 51.0, 86.0, 120.0, 156.0, 173.0, 216.0, 278.0, 349.0, 408.0, 494.0, 537.0, 648.0, 850.0, 963.0, 1035.0, 1203.0, 1364.0, 1589.0, 1811.0, 2127.0, 2372.0, 2666.0, 3026.0, 3209.0, 3235.0, 3152.0, 2941.0, 2628.0, 2178.0, 2022.0, 1747.0, 1525.0, 1331.0, 1097.0, 924.0, 666.0, 536.0, 374.0, 261.0, 215.0, 137.0, 96.0, 69.0, 60.0, 31.0, 33.0, 14.0, 12.0, 7.0, 5.0, 3.0, 3.0, 2.0], "bins": [-0.4367198944091797, -0.42480579018592834, -0.412891685962677, -0.40097755193710327, -0.38906344771385193, -0.3771493434906006, -0.36523520946502686, -0.3533211052417755, -0.34140700101852417, -0.3294928967952728, -0.3175787925720215, -0.30566465854644775, -0.2937505543231964, -0.28183645009994507, -0.26992231607437134, -0.25800821185112, -0.24609410762786865, -0.2341800034046173, -0.22226588428020477, -0.21035176515579224, -0.1984376609325409, -0.18652355670928955, -0.17460943758487701, -0.16269531846046448, -0.15078121423721313, -0.1388671100139618, -0.12695299088954926, -0.11503887921571732, -0.10312476754188538, -0.09121065586805344, -0.0792965441942215, -0.06738243252038956, -0.05546832084655762, -0.04355420917272568, -0.03164009749889374, -0.019725985825061798, -0.007811874151229858, 0.004102237522602081, 0.01601634919643402, 0.02793046087026596, 0.0398445725440979, 0.05175868421792984, 0.06367279589176178, 0.07558690756559372, 0.08750101923942566, 0.0994151309132576, 0.11132924258708954, 0.12324335426092148, 0.13515746593475342, 0.14707157015800476, 0.1589856892824173, 0.17089980840682983, 0.18281391263008118, 0.19472801685333252, 0.20664213597774506, 0.2185562551021576, 0.23047035932540894, 0.24238446354866028, 0.2542985677719116, 0.26621270179748535, 0.2781268060207367, 0.29004091024398804, 0.30195504426956177, 0.3138691484928131, 0.32578325271606445]}, "parameters/conv2.bias": {"_type": "histogram", "values": [1.0, 0.0, 0.0, 0.0, 0.0, 0.0, 0.0, 1.0, 0.0, 1.0, 1.0, 1.0, 0.0, 2.0, 1.0, 0.0, 1.0, 0.0, 4.0, 1.0, 3.0, 1.0, 1.0, 2.0, 2.0, 2.0, 2.0, 1.0, 5.0, 2.0, 2.0, 1.0, 1.0, 0.0, 1.0, 1.0, 4.0, 2.0, 1.0, 0.0, 1.0, 3.0, 2.0, 0.0, 3.0, 2.0, 1.0, 0.0, 0.0, 1.0, 0.0, 0.0, 0.0, 1.0, 0.0, 0.0, 0.0, 0.0, 0.0, 0.0, 0.0, 1.0, 0.0, 1.0], "bins": [-0.16157178580760956, -0.15774181485176086, -0.15391182899475098, -0.15008185803890228, -0.1462518870830536, -0.1424219012260437, -0.138591930270195, -0.1347619593143463, -0.13093197345733643, -0.12710200250148773, -0.12327202409505844, -0.11944204568862915, -0.11561207473278046, -0.11178209632635117, -0.10795211791992188, -0.10412214696407318, -0.10029216855764389, -0.0964621901512146, -0.0926322191953659, -0.08880224078893661, -0.08497226238250732, -0.08114229142665863, -0.07731231302022934, -0.07348233461380005, -0.06965236365795135, -0.06582238525152206, -0.06199240684509277, -0.05816243216395378, -0.05433245748281479, -0.0505024790763855, -0.046672504395246506, -0.042842525988817215, -0.03901255130767822, -0.03518257662653923, -0.03135259822010994, -0.027522623538970947, -0.023692646995186806, -0.019862670451402664, -0.016032695770263672, -0.01220271922647953, -0.008372742682695389, -0.0045427666045725346, -0.0007127905264496803, 0.003117185551673174, 0.006947161629796028, 0.01077713817358017, 0.014607113786041737, 0.018437089398503304, 0.022267065942287445, 0.026097042486071587, 0.029927019029855728, 0.03375699371099472, 0.03758697211742401, 0.041416946798563004, 0.045246921479701996, 0.04907689988613129, 0.05290687456727028, 0.05673684924840927, 0.06056682765483856, 0.06439680606126785, 0.06822677701711655, 0.07205675542354584, 0.07588673382997513, 0.07971670478582382, 0.08354668319225311]}, "parameters/fc1.weight": {"_type": "histogram", "values": [1.0, 0.0, 0.0, 1.0, 3.0, 4.0, 3.0, 4.0, 6.0, 10.0, 16.0, 23.0, 43.0, 48.0, 67.0, 103.0, 154.0, 201.0, 294.0, 419.0, 539.0, 693.0, 944.0, 1232.0, 1611.0, 2111.0, 2750.0, 3315.0, 4122.0, 4992.0, 6104.0, 9046.0, 13067.0, 13894.0, 13552.0, 12985.0, 9061.0, 6099.0, 4960.0, 4259.0, 3484.0, 2783.0, 2079.0, 1681.0, 1254.0, 873.0, 629.0, 501.0, 328.0, 240.0, 165.0, 111.0, 75.0, 52.0, 23.0, 23.0, 13.0, 5.0, 4.0, 6.0, 3.0, 2.0, 0.0, 2.0], "bins": [-0.45715320110321045, -0.443867951631546, -0.4305827021598816, -0.41729748249053955, -0.4040122330188751, -0.3907269835472107, -0.37744173407554626, -0.36415648460388184, -0.3508712649345398, -0.33758601546287537, -0.32430076599121094, -0.3110155165195465, -0.2977302670478821, -0.28444501757621765, -0.2711597979068756, -0.2578745484352112, -0.24458929896354675, -0.23130404949188232, -0.2180188149213791, -0.20473356544971466, -0.19144833087921143, -0.178163081407547, -0.16487783193588257, -0.15159259736537933, -0.1383073478937149, -0.12502209842205048, -0.11173686385154724, -0.09845161437988281, -0.08516637235879898, -0.07188113033771515, -0.05859588459134102, -0.04531063884496689, -0.03202536702156067, -0.018740123137831688, -0.005454879254102707, 0.007830364629626274, 0.021115608513355255, 0.03440085053443909, 0.04768609628081322, 0.06097134202718735, 0.07425658404827118, 0.08754182606935501, 0.10082706809043884, 0.11411231756210327, 0.1273975670337677, 0.14068280160427094, 0.15396805107593536, 0.1672532856464386, 0.18053853511810303, 0.19382378458976746, 0.2071090191602707, 0.22039426863193512, 0.23367950320243835, 0.24696475267410278, 0.2602500021457672, 0.27353525161743164, 0.2868204712867737, 0.3001057207584381, 0.31339097023010254, 0.32667621970176697, 0.3399614691734314, 0.3532467186450958, 0.36653193831443787, 0.3798171877861023, 0.3931024372577667]}, "parameters/fc1.bias": {"_type": "histogram", "values": [3.0, 1.0, 1.0, 0.0, 1.0, 1.0, 2.0, 2.0, 2.0, 2.0, 0.0, 2.0, 3.0, 4.0, 0.0, 0.0, 2.0, 2.0, 3.0, 5.0, 4.0, 2.0, 1.0, 3.0, 2.0, 3.0, 6.0, 3.0, 2.0, 2.0, 4.0, 5.0, 4.0, 4.0, 2.0, 5.0, 6.0, 4.0, 3.0, 3.0, 2.0, 4.0, 3.0, 1.0, 0.0, 4.0, 1.0, 1.0, 1.0, 0.0, 2.0, 0.0, 0.0, 0.0, 2.0, 0.0, 0.0, 1.0, 0.0, 0.0, 0.0, 0.0, 0.0, 2.0], "bins": [-0.09024009853601456, -0.08738784492015839, -0.08453559875488281, -0.08168335258960724, -0.07883109897375107, -0.0759788453578949, -0.07312659919261932, -0.07027435302734375, -0.06742209941148758, -0.06456984579563141, -0.061717599630355835, -0.05886534973978996, -0.05601309984922409, -0.05316084995865822, -0.050308600068092346, -0.047456350177526474, -0.0446041002869606, -0.04175185039639473, -0.03889960050582886, -0.036047350615262985, -0.03319510072469711, -0.03034285083413124, -0.02749060094356537, -0.024638351052999496, -0.021786101162433624, -0.018933851271867752, -0.01608160138130188, -0.013229351490736008, -0.010377101600170135, -0.007524851709604263, -0.004672601819038391, -0.001820351928472519, 0.0010319054126739502, 0.0038841553032398224, 0.006736405193805695, 0.009588655084371567, 0.012440904974937439, 0.015293154865503311, 0.018145404756069183, 0.020997654646635056, 0.023849904537200928, 0.0267021544277668, 0.029554404318332672, 0.032406654208898544, 0.035258904099464417, 0.03811115399003029, 0.04096340388059616, 0.04381565377116203, 0.046667903661727905, 0.04952015355229378, 0.05237240344285965, 0.05522465333342552, 0.058076903223991394, 0.060929153114557266, 0.06378140300512314, 0.06663365662097931, 0.06948590278625488, 0.07233814895153046, 0.07519040256738663, 0.0780426561832428, 0.08089490234851837, 0.08374714851379395, 0.08659940212965012, 0.08945165574550629, 0.09230390191078186]}, "parameters/fc2.weight": {"_type": "histogram", "values": [1.0, 0.0, 0.0, 2.0, 2.0, 0.0, 1.0, 5.0, 8.0, 2.0, 3.0, 9.0, 1.0, 6.0, 8.0, 10.0, 8.0, 17.0, 17.0, 15.0, 11.0, 8.0, 18.0, 21.0, 22.0, 21.0, 20.0, 20.0, 26.0, 30.0, 37.0, 45.0, 31.0, 27.0, 40.0, 36.0, 38.0, 36.0, 40.0, 24.0, 38.0, 40.0, 36.0, 54.0, 37.0, 53.0, 44.0, 43.0, 48.0, 45.0, 34.0, 32.0, 28.0, 22.0, 10.0, 16.0, 10.0, 7.0, 5.0, 4.0, 4.0, 3.0, 0.0, 1.0], "bins": [-0.3292822241783142, -0.3209819495677948, -0.312681645154953, -0.3043813705444336, -0.2960810661315918, -0.2877807915210724, -0.279480516910553, -0.2711802124977112, -0.2628799378871918, -0.25457966327667236, -0.24627935886383057, -0.23797908425331116, -0.22967879474163055, -0.22137850522994995, -0.21307823061943054, -0.20477794110774994, -0.19647765159606934, -0.18817736208438873, -0.17987707257270813, -0.17157679796218872, -0.16327650845050812, -0.15497621893882751, -0.1466759443283081, -0.1383756548166275, -0.1300753653049469, -0.1217750757932663, -0.11347479373216629, -0.10517451167106628, -0.09687422215938568, -0.08857393264770508, -0.08027365058660507, -0.07197336852550507, -0.06367304921150208, -0.05537276342511177, -0.047072477638721466, -0.03877219185233116, -0.030471906065940857, -0.022171620279550552, -0.013871334493160248, -0.005571048706769943, 0.0027292370796203613, 0.011029522866010666, 0.01932980865240097, 0.027630094438791275, 0.03593038022518158, 0.044230666011571884, 0.05253095179796219, 0.06083123758435249, 0.0691315233707428, 0.0774318128824234, 0.08573209494352341, 0.09403237700462341, 0.10233266651630402, 0.11063295602798462, 0.11893323808908463, 0.12723352015018463, 0.13553380966186523, 0.14383409917354584, 0.15213438868522644, 0.16043466329574585, 0.16873495280742645, 0.17703524231910706, 0.18533551692962646, 0.19363580644130707, 0.20193609595298767]}, "parameters/fc2.bias": {"_type": "histogram", "values": [1.0, 0.0, 1.0, 0.0, 1.0, 0.0, 0.0, 0.0, 0.0, 0.0, 0.0, 0.0, 0.0, 0.0, 0.0, 0.0, 0.0, 0.0, 0.0, 0.0, 0.0, 0.0, 0.0, 0.0, 0.0, 0.0, 0.0, 0.0, 0.0, 0.0, 0.0, 0.0, 0.0, 0.0, 0.0, 0.0, 0.0, 1.0, 0.0, 0.0, 0.0, 0.0, 1.0, 0.0, 1.0, 0.0, 0.0, 0.0, 0.0, 0.0, 0.0, 0.0, 0.0, 0.0, 0.0, 0.0, 1.0, 0.0, 2.0, 0.0, 0.0, 0.0, 0.0, 1.0], "bins": [-0.1167079359292984, -0.1134466901421547, -0.11018544435501099, -0.10692419856786728, -0.10366295278072357, -0.10040170699357986, -0.09714046120643616, -0.09387921541929245, -0.09061796963214874, -0.08735672384500504, -0.08409547805786133, -0.08083423227071762, -0.07757298648357391, -0.0743117406964302, -0.0710504949092865, -0.06778924912214279, -0.06452800333499908, -0.06126675754785538, -0.05800551176071167, -0.05474426597356796, -0.051483020186424255, -0.04822177439928055, -0.04496052861213684, -0.041699282824993134, -0.038438037037849426, -0.03517679125070572, -0.03191554546356201, -0.028654299676418304, -0.025393053889274597, -0.02213180810213089, -0.018870562314987183, -0.015609316527843475, -0.012348078191280365, -0.009086832404136658, -0.0058255866169929504, -0.002564340829849243, 0.0006969049572944641, 0.003958150744438171, 0.007219396531581879, 0.010480642318725586, 0.013741888105869293, 0.017003133893013, 0.020264379680156708, 0.023525625467300415, 0.026786871254444122, 0.03004811704158783, 0.03330936282873154, 0.036570608615875244, 0.03983185440301895, 0.04309310019016266, 0.046354345977306366, 0.04961559176445007, 0.05287683755159378, 0.05613808333873749, 0.059399329125881195, 0.0626605749130249, 0.06592182070016861, 0.06918306648731232, 0.07244431227445602, 0.07570555806159973, 0.07896680384874344, 0.08222804963588715, 0.08548929542303085, 0.08875054121017456, 0.09201178699731827]}, "gradients/fc2.bias": {"_type": "histogram", "values": [1.0, 0.0, 0.0, 0.0, 0.0, 0.0, 0.0, 0.0, 1.0, 1.0, 0.0, 0.0, 0.0, 0.0, 0.0, 0.0, 0.0, 0.0, 0.0, 0.0, 0.0, 0.0, 0.0, 1.0, 0.0, 1.0, 1.0, 1.0, 1.0, 0.0, 0.0, 0.0, 0.0, 0.0, 0.0, 0.0, 0.0, 0.0, 0.0, 0.0, 0.0, 0.0, 0.0, 0.0, 0.0, 0.0, 0.0, 0.0, 0.0, 0.0, 0.0, 0.0, 0.0, 1.0, 0.0, 0.0, 0.0, 0.0, 0.0, 0.0, 0.0, 0.0, 0.0, 1.0], "bins": [-1.0355287486163434e-05, -9.96699327515671e-06, -9.578698154655285e-06, -9.190403943648562e-06, -8.802109732641838e-06, -8.413814612140413e-06, -8.02552040113369e-06, -7.637225280632265e-06, -7.2489310696255416e-06, -6.860636403871467e-06, -6.472341738117393e-06, -6.08404752711067e-06, -5.6957528613565955e-06, -5.307458195602521e-06, -4.919163984595798e-06, -4.530869318841724e-06, -4.1425746530876495e-06, -3.7542799873335753e-06, -3.3659855489531765e-06, -2.9776911105727777e-06, -2.5893964448187035e-06, -2.2011017790646292e-06, -1.8128073406842304e-06, -1.424512788616994e-06, -1.0362182365497574e-06, -6.479236844825209e-07, -2.596291324152844e-07, 1.286654196519521e-07, 5.169599717191886e-07, 9.052545237864251e-07, 1.2935490758536616e-06, 1.6818436279208981e-06, 2.0701390894828364e-06, 2.4584337552369107e-06, 2.8467281936173094e-06, 3.2350226319977082e-06, 3.6233172977517825e-06, 4.011611963505857e-06, 4.39990617451258e-06, 4.788200840266654e-06, 5.1764955060207285e-06, 5.564790171774803e-06, 5.953084837528877e-06, 6.3413790485356e-06, 6.7296737142896745e-06, 7.117968380043749e-06, 7.506262591050472e-06, 7.894557711551897e-06, 8.28285192255862e-06, 8.671146133565344e-06, 9.059441254066769e-06, 9.447735465073492e-06, 9.836030585574917e-06, 1.022432479658164e-05, 1.0612619007588364e-05, 1.100091412808979e-05, 1.1389208339096513e-05, 1.1777502550103236e-05, 1.2165797670604661e-05, 1.2554091881611384e-05, 1.2942386092618108e-05, 1.3330681213119533e-05, 1.3718975424126256e-05, 1.4107270544627681e-05, 1.4495564755634405e-05]}, "gradients/fc2.weight": {"_type": "histogram", "values": [1.0, 0.0, 0.0, 1.0, 0.0, 0.0, 0.0, 0.0, 2.0, 1.0, 0.0, 0.0, 2.0, 0.0, 1.0, 2.0, 3.0, 3.0, 3.0, 0.0, 2.0, 3.0, 4.0, 5.0, 3.0, 2.0, 6.0, 12.0, 2.0, 7.0, 15.0, 27.0, 56.0, 962.0, 52.0, 21.0, 15.0, 8.0, 2.0, 5.0, 9.0, 7.0, 4.0, 7.0, 2.0, 2.0, 5.0, 4.0, 2.0, 1.0, 1.0, 2.0, 2.0, 0.0, 1.0, 2.0, 0.0, 0.0, 0.0, 0.0, 0.0, 0.0, 0.0, 1.0], "bins": [-0.00016803681501187384, -0.00016300778952427208, -0.0001579787494847551, -0.00015294972399715334, -0.00014792068395763636, -0.0001428916584700346, -0.00013786263298243284, -0.00013283359294291586, -0.0001278045674553141, -0.00012277554196771234, -0.00011774650192819536, -0.0001127174764405936, -0.00010768844367703423, -0.00010265941091347486, -9.76303854258731e-05, -9.260135266231373e-05, -8.757231989875436e-05, -8.254328713519499e-05, -7.751425437163562e-05, -7.248522888403386e-05, -6.745619612047449e-05, -6.242716335691512e-05, -5.739813423133455e-05, -5.236910510575399e-05, -4.734007234219462e-05, -4.2311039578635246e-05, -3.728201045305468e-05, -3.225298132747412e-05, -2.7223948563914746e-05, -2.219491761934478e-05, -1.716588667477481e-05, -1.2136855730204843e-05, -7.107810233719647e-06, -2.0787792891496792e-06, 2.9502516554202884e-06, 7.979282599990256e-06, 1.3008313544560224e-05, 1.803734448913019e-05, 2.306637543370016e-05, 2.8095406378270127e-05, 3.3124437322840095e-05, 3.8153470086399466e-05, 4.318249921198003e-05, 4.8211528337560594e-05, 5.3240561101119965e-05, 5.8269593864679337e-05, 6.32986193522811e-05, 6.832765211584046e-05, 7.335668487939984e-05, 7.838571764295921e-05, 8.341475040651858e-05, 8.844377589412034e-05, 9.347280865767971e-05, 9.850184142123908e-05, 0.00010353086690884084, 0.0001085598996724002, 0.00011358893243595958, 0.00011861796519951895, 0.00012364699796307832, 0.00012867602345068008, 0.00013370506349019706, 0.00013873408897779882, 0.00014376311446540058, 0.00014879215450491756, 0.00015382117999251932]}, "gradients/fc1.bias": {"_type": "histogram", "values": [1.0, 0.0, 0.0, 0.0, 0.0, 1.0, 0.0, 0.0, 0.0, 0.0, 0.0, 0.0, 0.0, 0.0, 1.0, 0.0, 0.0, 0.0, 1.0, 0.0, 1.0, 3.0, 1.0, 3.0, 6.0, 5.0, 0.0, 1.0, 1.0, 2.0, 2.0, 5.0, 5.0, 7.0, 16.0, 46.0, 4.0, 4.0, 3.0, 3.0, 1.0, 0.0, 0.0, 0.0, 1.0, 0.0, 0.0, 1.0, 0.0, 0.0, 1.0, 1.0, 0.0, 0.0, 0.0, 0.0, 0.0, 0.0, 0.0, 0.0, 0.0, 0.0, 0.0, 1.0], "bins": [-5.617736860585865e-06, -5.457731731439708e-06, -5.297726602293551e-06, -5.137721473147394e-06, -4.977716344001237e-06, -4.8177112148550805e-06, -4.657706085708924e-06, -4.497700956562767e-06, -4.33769582741661e-06, -4.177690698270453e-06, -4.017685569124296e-06, -3.8576804399781395e-06, -3.697675538205658e-06, -3.5376704090595013e-06, -3.3776652799133444e-06, -3.2176601507671876e-06, -3.0576550216210308e-06, -2.897649892474874e-06, -2.737644763328717e-06, -2.5776396341825603e-06, -2.4176345050364034e-06, -2.2576293758902466e-06, -2.0976242467440898e-06, -1.937619117597933e-06, -1.7776141021386138e-06, -1.617608972992457e-06, -1.4576038438463002e-06, -1.2975987147001433e-06, -1.1375936992408242e-06, -9.775885700946674e-07, -8.175834409485105e-07, -6.575783118023537e-07, -4.975731826561969e-07, -3.3756805351004004e-07, -1.7756295278559264e-07, -1.7557837850290525e-08, 1.424472770850116e-07, 3.024524062311684e-07, 4.6245750695561583e-07, 6.224626076800632e-07, 7.824677368262201e-07, 9.424728659723769e-07, 1.1024779951185337e-06, 1.2624831242646906e-06, 1.4224881397240097e-06, 1.5824932688701665e-06, 1.7424983980163233e-06, 1.9025035271624802e-06, 2.062508656308637e-06, 2.222513785454794e-06, 2.3825189146009507e-06, 2.5425240437471075e-06, 2.7025291728932643e-06, 2.862534302039421e-06, 3.022539431185578e-06, 3.182544560331735e-06, 3.3425494621042162e-06, 3.502554591250373e-06, 3.66255972039653e-06, 3.822564849542687e-06, 3.9825699786888435e-06, 4.142575107835e-06, 4.302580236981157e-06, 4.462585366127314e-06, 4.622590495273471e-06]}, "gradients/fc1.weight": {"_type": "histogram", "values": [1.0, 0.0, 0.0, 0.0, 0.0, 0.0, 0.0, 1.0, 1.0, 1.0, 1.0, 0.0, 1.0, 0.0, 0.0, 2.0, 4.0, 1.0, 1.0, 3.0, 7.0, 3.0, 10.0, 9.0, 17.0, 25.0, 23.0, 28.0, 41.0, 77.0, 106.0, 150.0, 236.0, 364.0, 518.0, 954.0, 1790.0, 16643.0, 108217.0, 798.0, 437.0, 183.0, 146.0, 85.0, 50.0, 32.0, 23.0, 16.0, 10.0, 11.0, 11.0, 5.0, 6.0, 4.0, 5.0, 3.0, 5.0, 1.0, 3.0, 1.0, 0.0, 1.0, 0.0, 1.0], "bins": [-4.714128590421751e-05, -4.590176831698045e-05, -4.466225072974339e-05, -4.342273314250633e-05, -4.218321555526927e-05, -4.094369796803221e-05, -3.970418038079515e-05, -3.846466279355809e-05, -3.722514520632103e-05, -3.598562761908397e-05, -3.474611003184691e-05, -3.350659244460985e-05, -3.226707485737279e-05, -3.102755727013573e-05, -2.978803968289867e-05, -2.854852209566161e-05, -2.730900450842455e-05, -2.606948692118749e-05, -2.482996933395043e-05, -2.359045174671337e-05, -2.235093415947631e-05, -2.111141657223925e-05, -1.987189898500219e-05, -1.863238139776513e-05, -1.739286381052807e-05, -1.615334622329101e-05, -1.491382863605395e-05, -1.367431104881689e-05, -1.243479346157983e-05, -1.119527587434277e-05, -9.95575828710571e-06, -8.71624069986865e-06, -7.476726750610396e-06, -6.237209163373336e-06, -4.997691576136276e-06, -3.758173988899216e-06, -2.518656401662156e-06, -1.279138814425096e-06, -3.9621227188035846e-08, 1.1998963600490242e-06, 2.4394139472860843e-06, 3.6789315345231444e-06, 4.9184491217602044e-06, 6.1579667089972645e-06, 7.3974842962343246e-06, 8.637001883471385e-06, 9.876519470708445e-06, 1.1116037057945505e-05, 1.2355554645182565e-05, 1.3595072232419625e-05, 1.4834589819656685e-05, 1.6074107406893745e-05, 1.7313624994130805e-05, 1.8553142581367865e-05, 1.9792660168604925e-05, 2.1032177755841985e-05, 2.2271695343079045e-05, 2.3511212930316105e-05, 2.4750730517553166e-05, 2.5990248104790226e-05, 2.7229765692027286e-05, 2.8469283279264346e-05, 2.9708800866501406e-05, 3.0948318453738466e-05, 3.2187836040975526e-05]}, "gradients/conv2.weight": {"_type": "histogram", "values": [1.0, 0.0, 0.0, 0.0, 0.0, 0.0, 0.0, 1.0, 1.0, 2.0, 2.0, 4.0, 4.0, 5.0, 1.0, 8.0, 11.0, 19.0, 17.0, 28.0, 28.0, 44.0, 38.0, 60.0, 92.0, 113.0, 152.0, 185.0, 225.0, 290.0, 343.0, 500.0, 659.0, 912.0, 1151.0, 1682.0, 2451.0, 3913.0, 7033.0, 21606.0, 3698.0, 1985.0, 1292.0, 841.0, 542.0, 328.0, 260.0, 181.0, 108.0, 88.0, 72.0, 55.0, 49.0, 21.0, 32.0, 22.0, 12.0, 13.0, 6.0, 6.0, 2.0, 2.0, 2.0, 2.0], "bins": [-1.9783812604146078e-05, -1.9281116692582145e-05, -1.877841896202881e-05, -1.8275723050464876e-05, -1.777302531991154e-05, -1.7270329408347607e-05, -1.6767633496783674e-05, -1.6264935766230337e-05, -1.5762239854666404e-05, -1.525954394310247e-05, -1.4756846212549135e-05, -1.4254150300985202e-05, -1.3751453479926568e-05, -1.3248756658867933e-05, -1.2746060747304e-05, -1.2243363926245365e-05, -1.174066710518673e-05, -1.1237970284128096e-05, -1.0735273463069461e-05, -1.0232577551505528e-05, -9.729880730446894e-06, -9.227183909388259e-06, -8.724487997824326e-06, -8.221791176765691e-06, -7.719094355707057e-06, -7.216397534648422e-06, -6.713701168337138e-06, -6.211004802025855e-06, -5.70830798096722e-06, -5.205611159908585e-06, -4.7029147935973015e-06, -4.200218427286018e-06, -3.6975234252167866e-06, -3.1948268315318273e-06, -2.692130237846868e-06, -2.189433644161909e-06, -1.6867370504769497e-06, -1.1840404567919904e-06, -6.813438631070312e-07, -1.7864726942207199e-07, 3.2404932426288724e-07, 8.267459179478465e-07, 1.3294425116328057e-06, 1.832139105317765e-06, 2.334835699002724e-06, 2.8375322926876834e-06, 3.3402288863726426e-06, 3.842925252683926e-06, 4.345622073742561e-06, 4.848318894801196e-06, 5.3510152611124795e-06, 5.853711627423763e-06, 6.356408448482398e-06, 6.859105269541033e-06, 7.361801635852316e-06, 7.8644980021636e-06, 8.367194823222235e-06, 8.86989164428087e-06, 9.372588465339504e-06, 9.875284376903437e-06, 1.0377981197962072e-05, 1.0880678019020706e-05, 1.138337393058464e-05, 1.1886070751643274e-05, 1.2388767572701909e-05]}, "gradients/conv2.bias": {"_type": "histogram", "values": [1.0, 0.0, 0.0, 0.0, 0.0, 0.0, 0.0, 0.0, 0.0, 0.0, 0.0, 0.0, 0.0, 1.0, 0.0, 0.0, 0.0, 0.0, 1.0, 0.0, 1.0, 1.0, 1.0, 1.0, 1.0, 1.0, 0.0, 0.0, 2.0, 1.0, 3.0, 0.0, 1.0, 3.0, 2.0, 2.0, 3.0, 4.0, 3.0, 1.0, 2.0, 11.0, 1.0, 1.0, 0.0, 2.0, 5.0, 2.0, 0.0, 2.0, 0.0, 0.0, 0.0, 0.0, 1.0, 1.0, 1.0, 0.0, 0.0, 0.0, 0.0, 0.0, 0.0, 1.0], "bins": [-1.545171471661888e-05, -1.5081832316354848e-05, -1.4711950825585518e-05, -1.4342069334816188e-05, -1.3972186934552155e-05, -1.3602304534288123e-05, -1.3232423043518793e-05, -1.2862541552749462e-05, -1.249265915248543e-05, -1.2122776752221398e-05, -1.1752895261452068e-05, -1.1383013770682737e-05, -1.1013131370418705e-05, -1.0643248970154673e-05, -1.0273367479385342e-05, -9.903485988616012e-06, -9.53360358835198e-06, -9.163721188087948e-06, -8.793839697318617e-06, -8.423958206549287e-06, -8.054075806285255e-06, -7.684193406021222e-06, -7.314311915251892e-06, -6.944429969735211e-06, -6.5745480242185295e-06, -6.204666078701848e-06, -5.834784133185167e-06, -5.4649021876684856e-06, -5.095020242151804e-06, -4.725138296635123e-06, -4.355256351118442e-06, -3.98537440560176e-06, -3.615492460085079e-06, -3.2456105145683978e-06, -2.8757285690517165e-06, -2.505846623535035e-06, -2.135964678018354e-06, -1.7660827325016726e-06, -1.3962007869849913e-06, -1.02631884146831e-06, -6.564368959516287e-07, -2.865549504349474e-07, 8.332699508173391e-08, 4.532089405984152e-07, 8.230908861150965e-07, 1.1929728316317778e-06, 1.5628547771484591e-06, 1.9327367226651404e-06, 2.3026186681818217e-06, 2.672500613698503e-06, 3.0423825592151843e-06, 3.4122645047318656e-06, 3.782146450248547e-06, 4.152028395765228e-06, 4.5219103412819095e-06, 4.891792286798591e-06, 5.261674232315272e-06, 5.631556177831953e-06, 6.001438123348635e-06, 6.371320068865316e-06, 6.741202014381997e-06, 7.111083959898679e-06, 7.48096590541536e-06, 7.85084739618469e-06, 8.220729796448722e-06]}, "gradients/conv1.weight": {"_type": "histogram", "values": [1.0, 0.0, 0.0, 0.0, 0.0, 0.0, 0.0, 0.0, 0.0, 0.0, 0.0, 0.0, 0.0, 3.0, 0.0, 3.0, 0.0, 0.0, 0.0, 3.0, 5.0, 6.0, 7.0, 10.0, 3.0, 10.0, 2.0, 9.0, 7.0, 6.0, 6.0, 6.0, 9.0, 6.0, 12.0, 12.0, 22.0, 24.0, 27.0, 19.0, 23.0, 41.0, 36.0, 36.0, 38.0, 36.0, 39.0, 38.0, 45.0, 41.0, 38.0, 24.0, 36.0, 24.0, 25.0, 16.0, 11.0, 11.0, 8.0, 4.0, 5.0, 1.0, 1.0, 5.0], "bins": [-9.49448804021813e-05, -9.289121953770518e-05, -9.083755867322907e-05, -8.878389780875295e-05, -8.673023694427684e-05, -8.467657607980072e-05, -8.262291521532461e-05, -8.05692543508485e-05, -7.851559348637238e-05, -7.646193262189627e-05, -7.440827175742015e-05, -7.235461089294404e-05, -7.030095002846792e-05, -6.824728916399181e-05, -6.61936282995157e-05, -6.413996743503958e-05, -6.208631384652108e-05, -6.003264934406616e-05, -5.7978988479590043e-05, -5.592532761511393e-05, -5.3871666750637814e-05, -5.18180058861617e-05, -4.9764345021685585e-05, -4.771068415720947e-05, -4.5657026930712163e-05, -4.360336606623605e-05, -4.1549705201759934e-05, -3.949604433728382e-05, -3.7442383472807705e-05, -3.538872260833159e-05, -3.3335061743855476e-05, -3.128140087937936e-05, -2.9227740014903247e-05, -2.7174079150427133e-05, -2.512041828595102e-05, -2.3066757421474904e-05, -2.101309655699879e-05, -1.895943751151208e-05, -1.6905776647035964e-05, -1.485211578255985e-05, -1.2798454918083735e-05, -1.074479405360762e-05, -8.691133189131506e-06, -6.637473234150093e-06, -4.5838123696739785e-06, -2.5301517325715395e-06, -4.764910954691004e-07, 1.5771695416333387e-06, 3.6308301787357777e-06, 5.684491043211892e-06, 7.738151907688007e-06, 9.79181186266942e-06, 1.1845472727145534e-05, 1.3899133591621649e-05, 1.595279354660306e-05, 1.8006454411079176e-05, 2.006011527555529e-05, 2.2113776140031405e-05, 2.416743700450752e-05, 2.6221097868983634e-05, 2.8274756914470345e-05, 3.032841777894646e-05, 3.2382078643422574e-05, 3.443573950789869e-05, 3.64894003723748e-05]}, "gradients/conv1.bias": {"_type": "histogram", "values": [3.0, 0.0, 0.0, 1.0, 1.0, 0.0, 1.0, 0.0, 1.0, 2.0, 0.0, 2.0, 0.0, 1.0, 1.0, 2.0, 0.0, 1.0, 0.0, 1.0, 3.0, 1.0, 0.0, 0.0, 2.0, 0.0, 0.0, 0.0, 0.0, 1.0, 0.0, 1.0, 1.0, 1.0, 0.0, 1.0, 0.0, 0.0, 0.0, 1.0, 0.0, 0.0, 0.0, 0.0, 0.0, 0.0, 0.0, 0.0, 0.0, 0.0, 0.0, 0.0, 0.0, 0.0, 0.0, 0.0, 1.0, 0.0, 0.0, 0.0, 1.0, 0.0, 0.0, 1.0], "bins": [-2.637274155858904e-05, -2.483112803020049e-05, -2.3289512682822533e-05, -2.174789915443398e-05, -2.0206283807056025e-05, -1.8664670278667472e-05, -1.712305675027892e-05, -1.5581441402900964e-05, -1.4039827874512412e-05, -1.2498213436629158e-05, -1.0956598998745903e-05, -9.414985470357351e-06, -7.873371032474097e-06, -6.331756594590843e-06, -4.7901426114549395e-06, -3.2485284009453608e-06, -1.706914190435782e-06, -1.6529997992620338e-07, 1.3763142305833753e-06, 2.917928441092954e-06, 4.459542651602533e-06, 6.001157089485787e-06, 7.54277107262169e-06, 9.084385055757593e-06, 1.0625999493640848e-05, 1.2167613931524102e-05, 1.3709228369407356e-05, 1.5250841897795908e-05, 1.679245542618446e-05, 1.8334070773562416e-05, 1.987568430195097e-05, 2.1417299649328925e-05, 2.2958913177717477e-05, 2.450052670610603e-05, 2.6042142053483985e-05, 2.7583755581872538e-05, 2.9125370929250494e-05, 3.066698263864964e-05, 3.22085979860276e-05, 3.3750213333405554e-05, 3.529182868078351e-05, 3.683344039018266e-05, 3.8375055737560615e-05, 3.991667108493857e-05, 4.145828279433772e-05, 4.2999898141715676e-05, 4.454151348909363e-05, 4.608312519849278e-05, 4.7624740545870736e-05, 4.916635589324869e-05, 5.070796760264784e-05, 5.22495829500258e-05, 5.379119829740375e-05, 5.53328100068029e-05, 5.687442535418086e-05, 5.8416040701558813e-05, 5.995765241095796e-05, 6.149926775833592e-05, 6.304088310571387e-05, 6.458249845309183e-05, 6.612411380046979e-05, 6.766572187189013e-05, 6.920733721926808e-05, 7.074895256664604e-05, 7.2290567914024e-05]}, "accuracy": 99.24, "_wandb": {"runtime": 305}}