{"loss": 0.01028842730096585, "_timestamp": 1708821458.0537925, "_runtime": 197.37000155448914, "_step": 90, "parameters/conv1.weight": {"_type": "histogram", "values": [1.0, 1.0, 0.0, 0.0, 0.0, 0.0, 3.0, 2.0, 4.0, 5.0, 4.0, 8.0, 10.0, 9.0, 8.0, 16.0, 21.0, 20.0, 21.0, 24.0, 22.0, 31.0, 36.0, 26.0, 29.0, 36.0, 31.0, 32.0, 29.0, 30.0, 29.0, 27.0, 23.0, 25.0, 27.0, 31.0, 19.0, 22.0, 23.0, 15.0, 22.0, 14.0, 10.0, 12.0, 8.0, 7.0, 6.0, 2.0, 4.0, 3.0, 0.0, 6.0, 1.0, 1.0, 1.0, 0.0, 1.0, 1.0, 0.0, 0.0, 0.0, 0.0, 0.0, 1.0], "bins": [-0.4435129761695862, -0.4276755154132843, -0.4118380546569824, -0.39600059390068054, -0.38016313314437866, -0.3643256723880768, -0.3484882116317749, -0.332650750875473, -0.31681329011917114, -0.3009757995605469, -0.285138338804245, -0.2693008780479431, -0.25346341729164124, -0.23762595653533936, -0.22178849577903748, -0.2059510350227356, -0.19011357426643372, -0.17427611351013184, -0.15843865275382996, -0.14260119199752808, -0.1267637312412262, -0.11092626303434372, -0.09508879482746124, -0.07925133407115936, -0.06341387331485748, -0.0475764125585556, -0.031738948076963425, -0.015901485458016396, -6.402283906936646e-05, 0.015773439779877663, 0.03161090239882469, 0.04744836688041687, 0.06328582763671875, 0.07912328839302063, 0.09496074914932251, 0.11079821735620499, 0.12663567066192627, 0.14247314631938934, 0.15831060707569122, 0.1741480678319931, 0.18998552858829498, 0.20582298934459686, 0.22166045010089874, 0.23749791085720062, 0.2533353865146637, 0.2691728472709656, 0.28501030802726746, 0.30084776878356934, 0.3166852295398712, 0.3325226902961731, 0.348360151052475, 0.36419761180877686, 0.38003507256507874, 0.3958725333213806, 0.4117099940776825, 0.4275474548339844, 0.44338494539260864, 0.4592224061489105, 0.4750598669052124, 0.4908973276615143, 0.5067347884178162, 0.5225722193717957, 0.5384097099304199, 0.5542471408843994, 0.5700846314430237]}, "parameters/conv1.bias": {"_type": "histogram", "values": [1.0, 0.0, 0.0, 0.0, 0.0, 0.0, 0.0, 0.0, 0.0, 0.0, 0.0, 0.0, 0.0, 0.0, 0.0, 0.0, 0.0, 0.0, 0.0, 0.0, 0.0, 0.0, 0.0, 0.0, 1.0, 0.0, 1.0, 1.0, 1.0, 1.0, 1.0, 1.0, 0.0, 1.0, 0.0, 1.0, 1.0, 1.0, 1.0, 1.0, 0.0, 0.0, 1.0, 0.0, 0.0, 3.0, 5.0, 0.0, 1.0, 0.0, 3.0, 0.0, 2.0, 0.0, 0.0, 0.0, 0.0, 0.0, 1.0, 1.0, 0.0, 0.0, 0.0, 1.0], "bins": [-0.4981842041015625, -0.49099838733673096, -0.4838125705718994, -0.47662675380706787, -0.46944093704223633, -0.4622551202774048, -0.45506933331489563, -0.4478835165500641, -0.44069769978523254, -0.433511883020401, -0.42632606625556946, -0.4191402494907379, -0.41195443272590637, -0.40476861596107483, -0.3975827991962433, -0.39039698243141174, -0.3832111954689026, -0.37602537870407104, -0.3688395619392395, -0.36165374517440796, -0.3544679284095764, -0.3472821116447449, -0.34009629487991333, -0.3329104781150818, -0.32572466135025024, -0.3185388445854187, -0.31135302782058716, -0.304167240858078, -0.29698142409324646, -0.2897956073284149, -0.2826097905635834, -0.27542397379875183, -0.2682381570339203, -0.26105234026908875, -0.2538665235042572, -0.24668072164058685, -0.2394949048757553, -0.23230908811092377, -0.22512328624725342, -0.21793746948242188, -0.21075165271759033, -0.2035658359527588, -0.19638001918792725, -0.1891942173242569, -0.18200840055942535, -0.1748225837945938, -0.16763676702976227, -0.16045095026493073, -0.15326514840126038, -0.14607933163642883, -0.1388935148715973, -0.13170769810676575, -0.1245218813419342, -0.11733607202768326, -0.11015025526285172, -0.10296444594860077, -0.09577862918376923, -0.08859281241893768, -0.08140700310468674, -0.0742211863398552, -0.06703537702560425, -0.059849560260772705, -0.05266374349594116, -0.04547793045639992, -0.03829211741685867]}, "parameters/conv2.weight": {"_type": "histogram", "values": [1.0, 1.0, 0.0, 2.0, 0.0, 1.0, 3.0, 3.0, 3.0, 14.0, 20.0, 24.0, 34.0, 47.0, 64.0, 102.0, 144.0, 176.0, 215.0, 316.0, 376.0, 462.0, 606.0, 775.0, 905.0, 1156.0, 1381.0, 1644.0, 1867.0, 2209.0, 2659.0, 2919.0, 3496.0, 3796.0, 3960.0, 3734.0, 3533.0, 2921.0, 2512.0, 2178.0, 1773.0, 1428.0, 1063.0, 814.0, 612.0, 440.0, 273.0, 207.0, 111.0, 91.0, 50.0, 27.0, 16.0, 14.0, 4.0, 9.0, 1.0, 3.0, 0.0, 2.0, 2.0, 0.0, 0.0, 1.0], "bins": [-0.513164222240448, -0.4986560642719269, -0.48414790630340576, -0.46963977813720703, -0.4551316201686859, -0.4406234622001648, -0.42611533403396606, -0.41160717606544495, -0.39709901809692383, -0.3825908601284027, -0.3680827021598816, -0.35357457399368286, -0.33906641602516174, -0.3245582580566406, -0.3100501298904419, -0.2955419719219208, -0.28103381395339966, -0.26652565598487854, -0.2520174980163574, -0.2375093698501587, -0.22300121188163757, -0.20849305391311646, -0.19398491084575653, -0.1794767677783966, -0.1649686098098755, -0.15046045184135437, -0.13595230877399445, -0.12144415825605392, -0.1069360077381134, -0.09242785722017288, -0.07791970670223236, -0.06341155618429184, -0.04890337586402893, -0.03439522534608841, -0.019887074828147888, -0.005378924310207367, 0.009129226207733154, 0.023637376725673676, 0.0381455272436142, 0.05265367776155472, 0.06716182827949524, 0.08166997879743576, 0.09617812931537628, 0.1106862798333168, 0.12519443035125732, 0.13970258831977844, 0.15421073138713837, 0.1687188744544983, 0.1832270324230194, 0.19773519039154053, 0.21224333345890045, 0.22675147652626038, 0.2412596344947815, 0.2557677924633026, 0.27027595043182373, 0.28478407859802246, 0.2992922365665436, 0.3138003945350647, 0.3283085227012634, 0.34281668066978455, 0.35732483863830566, 0.3718329966068268, 0.3863411545753479, 0.40084928274154663, 0.41535744071006775]}, "parameters/conv2.bias": {"_type": "histogram", "values": [1.0, 0.0, 0.0, 0.0, 0.0, 0.0, 1.0, 0.0, 0.0, 0.0, 0.0, 1.0, 2.0, 2.0, 1.0, 1.0, 3.0, 0.0, 0.0, 1.0, 2.0, 1.0, 1.0, 9.0, 2.0, 0.0, 2.0, 2.0, 0.0, 4.0, 2.0, 5.0, 2.0, 1.0, 0.0, 2.0, 3.0, 3.0, 0.0, 1.0, 1.0, 0.0, 3.0, 1.0, 1.0, 0.0, 0.0, 0.0, 1.0, 0.0, 0.0, 1.0, 0.0, 0.0, 0.0, 0.0, 0.0, 0.0, 0.0, 0.0, 0.0, 0.0, 0.0, 1.0], "bins": [-0.1368926465511322, -0.13321858644485474, -0.12954452633857727, -0.1258704662322998, -0.12219640612602234, -0.11852235347032547, -0.114848293364048, -0.11117423325777054, -0.10750017315149307, -0.1038261130452156, -0.10015205293893814, -0.09647799283266068, -0.0928039401769638, -0.08912988007068634, -0.08545581996440887, -0.08178175985813141, -0.07810769975185394, -0.07443363964557648, -0.07075957953929901, -0.06708551943302155, -0.06341145932674408, -0.05973740294575691, -0.056063346564769745, -0.05238928645849228, -0.04871522635221481, -0.04504116624593735, -0.04136710613965988, -0.037693049758672714, -0.03401898965239525, -0.030344929546117783, -0.026670871302485466, -0.02299681305885315, -0.019322745501995087, -0.01564868539571762, -0.011974627152085304, -0.008300567977130413, -0.004626508802175522, -0.0009524496272206306, 0.0027216095477342606, 0.006395668722689152, 0.010069727897644043, 0.013743787072598934, 0.017417846247553825, 0.021091904491186142, 0.024765964597463608, 0.028440024703741074, 0.03211408108472824, 0.03578814119100571, 0.03946220129728317, 0.04313626140356064, 0.046810321509838104, 0.05048437789082527, 0.05415843799710274, 0.0578324981033802, 0.06150655448436737, 0.06518061459064484, 0.0688546746969223, 0.07252873480319977, 0.07620279490947723, 0.0798768550157547, 0.08355091512203217, 0.08722496777772903, 0.0908990278840065, 0.09457308799028397, 0.09824714809656143]}, "parameters/fc1.weight": {"_type": "histogram", "values": [1.0, 1.0, 2.0, 3.0, 2.0, 2.0, 5.0, 4.0, 11.0, 13.0, 20.0, 40.0, 51.0, 47.0, 97.0, 136.0, 176.0, 231.0, 323.0, 426.0, 549.0, 741.0, 1026.0, 1306.0, 1632.0, 2062.0, 2678.0, 3243.0, 4109.0, 5041.0, 6244.0, 12472.0, 14743.0, 14698.0, 14271.0, 12734.0, 6757.0, 4911.0, 4244.0, 3664.0, 2886.0, 2329.0, 1850.0, 1412.0, 1110.0, 820.0, 615.0, 428.0, 303.0, 202.0, 143.0, 121.0, 43.0, 34.0, 26.0, 10.0, 5.0, 6.0, 7.0, 4.0, 1.0, 0.0, 0.0, 1.0], "bins": [-0.4365035891532898, -0.4236633777618408, -0.41082316637039185, -0.39798295497894287, -0.3851427137851715, -0.37230250239372253, -0.35946229100227356, -0.3466220796108246, -0.3337818682193756, -0.32094165682792664, -0.3081014156341553, -0.2952612042427063, -0.2824209928512573, -0.26958078145980835, -0.2567405700683594, -0.2439003437757492, -0.23106013238430023, -0.21821992099285126, -0.2053796947002411, -0.19253948330879211, -0.17969927191734314, -0.16685904562473297, -0.154018834233284, -0.14117862284183502, -0.12833839654922485, -0.11549818515777588, -0.1026579737663269, -0.08981775492429733, -0.07697753608226776, -0.06413732469081879, -0.051297105848789215, -0.03845689073204994, -0.02561667561531067, -0.012776459567248821, 6.375648081302643e-05, 0.012903972528874874, 0.025744188576936722, 0.038584403693675995, 0.051424622535705566, 0.06426483392715454, 0.07710505276918411, 0.08994527161121368, 0.10278548300266266, 0.11562570184469223, 0.1284659206867218, 0.14130613207817078, 0.15414634346961975, 0.16698656976222992, 0.1798267811536789, 0.19266699254512787, 0.20550721883773804, 0.218347430229187, 0.231187641620636, 0.24402786791324615, 0.25686806440353394, 0.2697083055973053, 0.2825485169887543, 0.29538872838020325, 0.3082289397716522, 0.3210691511631012, 0.33390936255455017, 0.34674960374832153, 0.3595898151397705, 0.3724300265312195, 0.38527023792266846]}, "parameters/fc1.bias": {"_type": "histogram", "values": [1.0, 0.0, 0.0, 0.0, 0.0, 0.0, 0.0, 1.0, 0.0, 0.0, 0.0, 0.0, 0.0, 1.0, 2.0, 0.0, 2.0, 2.0, 0.0, 1.0, 2.0, 1.0, 2.0, 3.0, 3.0, 2.0, 0.0, 5.0, 5.0, 7.0, 6.0, 6.0, 5.0, 5.0, 2.0, 3.0, 8.0, 2.0, 3.0, 6.0, 7.0, 1.0, 3.0, 7.0, 2.0, 2.0, 4.0, 3.0, 3.0, 0.0, 1.0, 1.0, 4.0, 1.0, 0.0, 0.0, 0.0, 1.0, 0.0, 0.0, 0.0, 1.0, 0.0, 1.0], "bins": [-0.1280720829963684, -0.12471019476652145, -0.1213482990860939, -0.11798641085624695, -0.1146245226264, -0.11126262694597244, -0.10790073871612549, -0.10453885048627853, -0.10117696225643158, -0.09781506657600403, -0.09445317834615707, -0.09109129011631012, -0.08772939443588257, -0.08436750620603561, -0.08100561797618866, -0.07764372229576111, -0.07428183406591415, -0.0709199458360672, -0.06755805015563965, -0.0641961619257927, -0.06083427369594574, -0.05747238174080849, -0.054110489785671234, -0.05074860155582428, -0.04738670960068703, -0.044024817645549774, -0.04066292941570282, -0.03730103746056557, -0.033939145505428314, -0.03057725727558136, -0.027215365320444107, -0.023853475227952003, -0.0204915851354599, -0.017129695042967796, -0.013767804019153118, -0.01040591299533844, -0.007044022902846336, -0.0036821323446929455, -0.0003202417865395546, 0.0030416487716138363, 0.006403539329767227, 0.00976542942225933, 0.013127320446074009, 0.016489211469888687, 0.01985110156238079, 0.023212991654872894, 0.026574883610010147, 0.02993677370250225, 0.033298663794994354, 0.03666055575013161, 0.04002244397997856, 0.043384335935115814, 0.04674622416496277, 0.05010811612010002, 0.053470008075237274, 0.05683189630508423, 0.06019378826022148, 0.06355568021535873, 0.06691756844520569, 0.07027945667505264, 0.0736413523554802, 0.07700324058532715, 0.0803651288151741, 0.08372702449560165, 0.08708891272544861]}, "parameters/fc2.weight": {"_type": "histogram", "values": [1.0, 0.0, 0.0, 0.0, 1.0, 5.0, 2.0, 4.0, 6.0, 6.0, 4.0, 4.0, 3.0, 2.0, 4.0, 9.0, 9.0, 8.0, 5.0, 17.0, 14.0, 18.0, 14.0, 14.0, 15.0, 20.0, 19.0, 20.0, 24.0, 26.0, 40.0, 38.0, 57.0, 50.0, 43.0, 51.0, 45.0, 35.0, 40.0, 41.0, 38.0, 57.0, 43.0, 48.0, 58.0, 43.0, 50.0, 45.0, 52.0, 26.0, 35.0, 22.0, 16.0, 11.0, 10.0, 5.0, 2.0, 0.0, 1.0, 0.0, 0.0, 1.0, 1.0, 2.0], "bins": [-0.34484291076660156, -0.33602842688560486, -0.32721397280693054, -0.31839948892593384, -0.30958500504493713, -0.30077052116394043, -0.2919560670852661, -0.2831415832042694, -0.2743270993232727, -0.2655126452445984, -0.2566981613636017, -0.24788367748260498, -0.23906920850276947, -0.23025472462177277, -0.22144025564193726, -0.21262577176094055, -0.20381130278110504, -0.19499683380126953, -0.18618234992027283, -0.17736788094043732, -0.1685533970594406, -0.1597389280796051, -0.1509244441986084, -0.1421099752187729, -0.13329550623893738, -0.12448102235794067, -0.11566654592752457, -0.10685206949710846, -0.09803760051727295, -0.08922312408685684, -0.08040864765644073, -0.07159417122602463, -0.06277970969676971, -0.05396523326635361, -0.0451507568359375, -0.03633628413081169, -0.027521807700395584, -0.018707331269979477, -0.009892856702208519, -0.0010783812031149864, 0.007736094295978546, 0.016550570726394653, 0.02536504529416561, 0.03417951986193657, 0.042993996292352676, 0.051808472722768784, 0.06062294542789459, 0.0694374218583107, 0.0782518982887268, 0.08706637471914291, 0.09588085114955902, 0.10469532757997513, 0.11350980401039124, 0.12232427299022675, 0.13113875687122345, 0.13995322585105896, 0.14876770973205566, 0.15758217871189117, 0.16639664769172668, 0.1752111315727234, 0.1840256005525589, 0.1928400844335556, 0.2016545534133911, 0.21046903729438782, 0.21928350627422333]}, "parameters/fc2.bias": {"_type": "histogram", "values": [1.0, 0.0, 0.0, 0.0, 0.0, 0.0, 0.0, 0.0, 2.0, 0.0, 0.0, 0.0, 0.0, 0.0, 0.0, 0.0, 1.0, 0.0, 0.0, 0.0, 0.0, 1.0, 0.0, 0.0, 0.0, 0.0, 0.0, 0.0, 0.0, 0.0, 1.0, 0.0, 0.0, 0.0, 0.0, 0.0, 0.0, 2.0, 0.0, 0.0, 0.0, 1.0, 0.0, 0.0, 0.0, 0.0, 0.0, 0.0, 0.0, 0.0, 0.0, 0.0, 0.0, 0.0, 0.0, 0.0, 0.0, 0.0, 0.0, 0.0, 0.0, 0.0, 0.0, 1.0], "bins": [-0.12746979296207428, -0.1237742230296135, -0.12007864564657211, -0.11638307571411133, -0.11268749833106995, -0.10899192839860916, -0.10529635846614838, -0.101600781083107, -0.09790521115064621, -0.09420964121818542, -0.09051406383514404, -0.08681849390268326, -0.08312292397022247, -0.07942734658718109, -0.0757317766547203, -0.07203619927167892, -0.06834062933921814, -0.06464505940675735, -0.06094948202371597, -0.05725391209125519, -0.053558338433504105, -0.04986276477575302, -0.046167194843292236, -0.04247162118554115, -0.03877604752779007, -0.035080473870038986, -0.0313849002122879, -0.027689330279827118, -0.023993756622076035, -0.02029818296432495, -0.016602611169219017, -0.012907038442790508, -0.009211473166942596, -0.005515900440514088, -0.001820327714085579, 0.0018752450123429298, 0.005570817738771439, 0.009266390465199947, 0.012961963191628456, 0.01665753498673439, 0.020353108644485474, 0.024048682302236557, 0.02774425409734249, 0.031439825892448425, 0.03513539955019951, 0.03883097320795059, 0.04252654314041138, 0.04622211679816246, 0.049917690455913544, 0.05361326411366463, 0.05730883777141571, 0.061004407703876495, 0.06469997763633728, 0.06839555501937866, 0.07209112495183945, 0.07578670233488083, 0.07948227226734161, 0.0831778421998024, 0.08687341958284378, 0.09056898951530457, 0.09426456689834595, 0.09796013683080673, 0.10165570676326752, 0.1053512841463089, 0.10904685407876968]}, "gradients/fc2.bias": {"_type": "histogram", "values": [1.0, 0.0, 0.0, 0.0, 0.0, 0.0, 0.0, 0.0, 0.0, 0.0, 0.0, 0.0, 0.0, 0.0, 0.0, 0.0, 0.0, 0.0, 0.0, 0.0, 0.0, 0.0, 0.0, 0.0, 0.0, 0.0, 0.0, 1.0, 0.0, 0.0, 0.0, 1.0, 3.0, 2.0, 0.0, 0.0, 1.0, 0.0, 0.0, 0.0, 0.0, 0.0, 0.0, 0.0, 0.0, 0.0, 0.0, 0.0, 0.0, 0.0, 0.0, 0.0, 0.0, 0.0, 0.0, 0.0, 0.0, 0.0, 0.0, 0.0, 0.0, 0.0, 0.0, 1.0], "bins": [-0.00022181445092428476, -0.0002149750798707828, -0.0002081356942653656, -0.00020129632321186364, -0.00019445695215836167, -0.0001876175811048597, -0.00018077821005135775, -0.00017393882444594055, -0.0001670994533924386, -0.00016026008233893663, -0.00015342069673351943, -0.00014658132568001747, -0.0001397419546265155, -0.00013290258357301354, -0.00012606321251951158, -0.00011922382691409439, -0.00011238445586059242, -0.00010554508480709046, -9.870570647763088e-05, -9.18663281481713e-05, -8.502695709466934e-05, -7.818758604116738e-05, -7.13482077117078e-05, -6.450882938224822e-05, -5.766945832874626e-05, -5.083008363726549e-05, -4.399070894578472e-05, -3.715133425430395e-05, -3.0311959562823176e-05, -2.3472584871342406e-05, -1.6633210179861635e-05, -9.793835488380864e-06, -2.954446244984865e-06, 3.8849284464959055e-06, 1.0724303137976676e-05, 1.7563677829457447e-05, 2.4403052520938218e-05, 3.124242721241899e-05, 3.808180190389976e-05, 4.492117659538053e-05, 5.17605512868613e-05, 5.859992597834207e-05, 6.543930066982284e-05, 7.227867899928242e-05, 7.911805005278438e-05, 8.595742110628635e-05, 9.279679943574592e-05, 9.96361777652055e-05, 0.00010647554881870747, 0.00011331491987220943, 0.00012015429820166901, 0.00012699367653112859, 0.00013383304758463055, 0.0001406724186381325, 0.0001475118042435497, 0.00015435117529705167, 0.00016119054635055363, 0.0001680299174040556, 0.00017486928845755756, 0.00018170867406297475, 0.00018854804511647671, 0.00019538741616997868, 0.00020222680177539587, 0.00020906617282889783, 0.0002159055438823998]}, "gradients/fc2.weight": {"_type": "histogram", "values": [1.0, 2.0, 0.0, 0.0, 0.0, 0.0, 0.0, 1.0, 0.0, 0.0, 0.0, 1.0, 1.0, 2.0, 1.0, 2.0, 1.0, 1.0, 1.0, 0.0, 1.0, 0.0, 1.0, 1.0, 2.0, 1.0, 4.0, 2.0, 2.0, 8.0, 9.0, 22.0, 1157.0, 14.0, 10.0, 5.0, 2.0, 1.0, 4.0, 1.0, 3.0, 0.0, 1.0, 0.0, 1.0, 1.0, 1.0, 1.0, 2.0, 1.0, 2.0, 1.0, 1.0, 0.0, 0.0, 0.0, 1.0, 0.0, 0.0, 0.0, 0.0, 0.0, 2.0, 1.0], "bins": [-0.00456848694011569, -0.004427592270076275, -0.004286697134375572, -0.004145802464336157, -0.004004907328635454, -0.003864012658596039, -0.00372311775572598, -0.003582222852855921, -0.0034413279499858618, -0.0033004330471158028, -0.0031595381442457438, -0.0030186432413756847, -0.0028777485713362694, -0.0027368536684662104, -0.0025959587655961514, -0.0024550638627260923, -0.0023141689598560333, -0.0021732740569859743, -0.0020323791541159153, -0.0018914843676611781, -0.001750589464791119, -0.00160969456192106, -0.001468799775466323, -0.0013279048725962639, -0.0011870099697262049, -0.0010461150668561459, -0.0009052202221937478, -0.0007643253775313497, -0.0006234304746612906, -0.0004825356008950621, -0.00034164072712883353, -0.00020074585336260498, -5.985144525766373e-05, 8.104342850856483e-05, 0.0002219383022747934, 0.00036283317604102194, 0.0005037280498072505, 0.0006446229526773095, 0.0007855177973397076, 0.0009264126420021057, 0.0010673075448721647, 0.0012082024477422237, 0.0013490973506122828, 0.00148999213706702, 0.001630887039937079, 0.001771781942807138, 0.0019126767292618752, 0.002053571632131934, 0.002194466535001993, 0.002335361437872052, 0.002476256340742111, 0.0026171512436121702, 0.0027580461464822292, 0.0028989408165216446, 0.0030398357193917036, 0.0031807306222617626, 0.0033216255251318216, 0.0034625204280018806, 0.0036034153308719397, 0.0037443102337419987, 0.003885204903781414, 0.004026100039482117, 0.004166994709521532, 0.004307889845222235, 0.00444878451526165]}, "gradients/fc1.bias": {"_type": "histogram", "values": [1.0, 2.0, 0.0, 0.0, 0.0, 0.0, 1.0, 0.0, 0.0, 0.0, 2.0, 0.0, 0.0, 1.0, 1.0, 0.0, 2.0, 0.0, 0.0, 0.0, 0.0, 0.0, 1.0, 3.0, 0.0, 1.0, 0.0, 2.0, 4.0, 3.0, 13.0, 70.0, 3.0, 2.0, 2.0, 2.0, 2.0, 0.0, 2.0, 2.0, 0.0, 1.0, 1.0, 0.0, 0.0, 1.0, 0.0, 0.0, 0.0, 0.0, 0.0, 0.0, 0.0, 0.0, 0.0, 0.0, 0.0, 1.0, 0.0, 0.0, 0.0, 1.0, 0.0, 1.0], "bins": [-7.118150097085163e-05, -6.890079384902492e-05, -6.662009400315583e-05, -6.433938688132912e-05, -6.205867975950241e-05, -5.97779726376757e-05, -5.74972691538278e-05, -5.52165656699799e-05, -5.293585854815319e-05, -5.0655151426326483e-05, -4.837444794247858e-05, -4.609374445863068e-05, -4.381303733680397e-05, -4.1532330214977264e-05, -3.925162673112936e-05, -3.697092324728146e-05, -3.4690216125454754e-05, -3.2409509003628045e-05, -3.0128805519780144e-05, -2.784810021694284e-05, -2.5567394914105535e-05, -2.328668961126823e-05, -2.1005984308430925e-05, -1.872527900559362e-05, -1.6444573702756315e-05, -1.416386839991901e-05, -1.1883163097081706e-05, -9.602457794244401e-06, -7.321752491407096e-06, -5.041047188569792e-06, -2.760341885732487e-06, -4.796365828951821e-07, 1.8010759958997369e-06, 4.081781298737042e-06, 6.362486601574346e-06, 8.643191904411651e-06, 1.0923897207248956e-05, 1.320460251008626e-05, 1.5485307812923566e-05, 1.776601311576087e-05, 2.0046718418598175e-05, 2.232742372143548e-05, 2.4608129024272785e-05, 2.688883432711009e-05, 2.9169539629947394e-05, 3.14502467517741e-05, 3.3730950235622004e-05, 3.6011653719469905e-05, 3.829236084129661e-05, 4.057306796312332e-05, 4.285377144697122e-05, 4.5134474930819124e-05, 4.741518205264583e-05, 4.969588917447254e-05, 5.197659265832044e-05, 5.425729614216834e-05, 5.653800326399505e-05, 5.881871038582176e-05, 6.109941750764847e-05, 6.338011735351756e-05, 6.566082447534427e-05, 6.794153159717098e-05, 7.022223144304007e-05, 7.250293856486678e-05, 7.478364568669349e-05]}, "gradients/fc1.weight": {"_type": "histogram", "values": [1.0, 1.0, 2.0, 6.0, 6.0, 5.0, 3.0, 10.0, 13.0, 26.0, 14.0, 18.0, 27.0, 29.0, 23.0, 29.0, 41.0, 44.0, 62.0, 56.0, 76.0, 83.0, 104.0, 113.0, 141.0, 244.0, 288.0, 369.0, 514.0, 849.0, 1639.0, 122772.0, 1337.0, 663.0, 367.0, 243.0, 190.0, 144.0, 94.0, 83.0, 51.0, 48.0, 33.0, 23.0, 17.0, 22.0, 11.0, 10.0, 14.0, 16.0, 23.0, 6.0, 15.0, 11.0, 12.0, 11.0, 3.0, 6.0, 2.0, 1.0, 5.0, 2.0, 0.0, 1.0], "bins": [-0.0006061338353902102, -0.0005868218140676618, -0.0005675097927451134, -0.000548197771422565, -0.0005288857501000166, -0.0005095737287774682, -0.0004902617074549198, -0.00047094965702854097, -0.0004516376357059926, -0.0004323256143834442, -0.0004130135930608958, -0.0003937015717383474, -0.00037438952131196856, -0.0003550774999894202, -0.0003357654786668718, -0.0003164534573443234, -0.000297141436021775, -0.0002778294146992266, -0.00025851739337667823, -0.0002392053575022146, -0.00021989333617966622, -0.00020058131485711783, -0.00018126927898265421, -0.00016195725766010582, -0.00014264523633755744, -0.00012333321501500905, -0.00010402118641650304, -8.470915781799704e-05, -6.539713649544865e-05, -4.608511153492145e-05, -2.6773086574394256e-05, -7.461061613867059e-06, 1.185102155432105e-05, 3.116304651484825e-05, 5.0475071475375444e-05, 6.978710007388145e-05, 8.909912139642984e-05, 0.00010841114271897823, 0.00012772317859344184, 0.00014703519991599023, 0.00016634722123853862, 0.000185659242561087, 0.0002049712638836354, 0.00022428329975809902, 0.0002435953210806474, 0.000262907356955111, 0.0002822193782776594, 0.0003015313996002078, 0.0003208434209227562, 0.0003401554422453046, 0.000359467463567853, 0.00037877948489040136, 0.00039809150621294975, 0.0004174035566393286, 0.000436715577961877, 0.0004560275992844254, 0.00047533962060697377, 0.0004946516710333526, 0.000513963692355901, 0.0005332757136784494, 0.0005525877350009978, 0.0005718997563235462, 0.0005912117776460946, 0.000610523798968643, 0.0006298358202911913]}, "gradients/conv2.weight": {"_type": "histogram", "values": [2.0, 2.0, 7.0, 6.0, 9.0, 13.0, 25.0, 42.0, 51.0, 82.0, 138.0, 230.0, 338.0, 635.0, 1187.0, 2732.0, 13781.0, 26070.0, 2646.0, 1279.0, 625.0, 383.0, 258.0, 159.0, 129.0, 86.0, 71.0, 37.0, 38.0, 24.0, 19.0, 14.0, 18.0, 15.0, 10.0, 6.0, 3.0, 5.0, 4.0, 2.0, 1.0, 2.0, 2.0, 1.0, 2.0, 3.0, 1.0, 2.0, 2.0, 0.0, 0.0, 0.0, 1.0, 1.0, 0.0, 0.0, 0.0, 0.0, 0.0, 0.0, 0.0, 0.0, 0.0, 1.0], "bins": [-0.0002790560247376561, -0.0002626597706694156, -0.0002462634874973446, -0.0002298672334291041, -0.00021347096480894834, -0.00019707469618879259, -0.00018067844212055206, -0.0001642821735003963, -0.00014788590488024056, -0.0001314896362600848, -0.00011509337491588667, -9.869711357168853e-05, -8.230084495153278e-05, -6.590457633137703e-05, -4.950831498717889e-05, -3.311205000500195e-05, -1.6715785022825003e-05, -3.1952004064805806e-07, 1.6076744941528887e-05, 3.247300992370583e-05, 4.8869274905882776e-05, 6.526554352603853e-05, 8.166180487023667e-05, 9.80580662144348e-05, 0.00011445433483459055, 0.0001308506034547463, 0.00014724687207490206, 0.00016364312614314258, 0.00018003939476329833, 0.00019643566338345408, 0.0002128319174516946, 0.00022922818607185036, 0.0002456243964843452, 0.0002620206505525857, 0.0002784169337246567, 0.0002948131877928972, 0.0003112094709649682, 0.00032760572503320873, 0.00034400197910144925, 0.00036039826227352023, 0.00037679451634176075, 0.0003931907704100013, 0.00040958705358207226, 0.0004259833076503128, 0.0004423795617185533, 0.0004587758448906243, 0.0004751720989588648, 0.0004915683530271053, 0.0005079646361991763, 0.0005243609193712473, 0.0005407571443356574, 0.0005571534275077283, 0.0005735497106797993, 0.0005899459356442094, 0.0006063422188162804, 0.0006227385019883513, 0.0006391347851604223, 0.0006555310101248324, 0.0006719272932969034, 0.0006883235764689744, 0.0007047198014333844, 0.0007211160846054554, 0.0007375123677775264, 0.0007539085927419364, 0.0007703048759140074]}, "gradients/conv2.bias": {"_type": "histogram", "values": [1.0, 0.0, 0.0, 2.0, 0.0, 0.0, 1.0, 0.0, 0.0, 1.0, 3.0, 1.0, 2.0, 1.0, 2.0, 4.0, 3.0, 3.0, 4.0, 9.0, 4.0, 4.0, 2.0, 2.0, 2.0, 2.0, 1.0, 1.0, 1.0, 1.0, 1.0, 0.0, 1.0, 1.0, 0.0, 0.0, 1.0, 0.0, 0.0, 0.0, 1.0, 0.0, 0.0, 0.0, 0.0, 0.0, 0.0, 0.0, 0.0, 1.0, 0.0, 0.0, 0.0, 0.0, 0.0, 0.0, 0.0, 0.0, 0.0, 0.0, 0.0, 0.0, 0.0, 1.0], "bins": [-0.00014058471424505115, -0.0001332358515355736, -0.00012588700337801129, -0.00011853814066853374, -0.00011118928523501381, -0.00010384042980149388, -9.649157436797395e-05, -8.914271893445402e-05, -8.179385622497648e-05, -7.444500079145655e-05, -6.709614535793662e-05, -5.974728992441669e-05, -5.239843449089676e-05, -4.5049575419398025e-05, -3.7700719985878095e-05, -3.0351862733368762e-05, -2.300300548085943e-05, -1.5654148228350095e-05, -8.305291885335464e-06, -9.564350875734817e-07, 6.392421710188501e-06, 1.3741278962697834e-05, 2.1090134396217763e-05, 2.8438991648727097e-05, 3.578784890123643e-05, 4.313670433475636e-05, 5.0485563406255096e-05, 5.7834418839775026e-05, 6.518327427329496e-05, 7.253212970681489e-05, 7.988099241629243e-05, 8.722984784981236e-05, 9.457870328333229e-05, 0.00010192755871685222, 0.00010927641415037215, 0.00011662527685984969, 0.000123974125017412, 0.00013132298772688955, 0.0001386718504363671, 0.0001460206985939294, 0.00015336956130340695, 0.00016071840946096927, 0.0001680672721704468, 0.00017541613487992436, 0.00018276498303748667, 0.00019011384574696422, 0.00019746269390452653, 0.00020481155661400408, 0.0002121604047715664, 0.00021950926748104393, 0.00022685813019052148, 0.0002342069783480838, 0.00024155584105756134, 0.00024890468921512365, 0.0002562535519246012, 0.00026360241463407874, 0.0002709512773435563, 0.00027830011094920337, 0.0002856489736586809, 0.00029299783636815846, 0.000300346699077636, 0.00030769556178711355, 0.00031504439539276063, 0.0003223932581022382, 0.0003297421208117157]}, "gradients/conv1.weight": {"_type": "histogram", "values": [1.0, 3.0, 4.0, 2.0, 3.0, 3.0, 2.0, 3.0, 2.0, 3.0, 3.0, 2.0, 3.0, 5.0, 5.0, 10.0, 5.0, 9.0, 16.0, 13.0, 14.0, 19.0, 26.0, 22.0, 40.0, 41.0, 27.0, 32.0, 42.0, 37.0, 34.0, 42.0, 38.0, 42.0, 25.0, 27.0, 20.0, 19.0, 19.0, 17.0, 17.0, 18.0, 9.0, 6.0, 11.0, 13.0, 11.0, 3.0, 4.0, 2.0, 8.0, 3.0, 3.0, 3.0, 3.0, 0.0, 0.0, 1.0, 3.0, 0.0, 0.0, 0.0, 1.0, 1.0], "bins": [-0.0006057071732357144, -0.0005841698148287833, -0.0005626324564218521, -0.000541095098014921, -0.0005195577396079898, -0.0004980203812010586, -0.0004764830518979579, -0.00045494569349102676, -0.0004334083350840956, -0.00041187097667716444, -0.0003903336182702333, -0.0003687962598633021, -0.0003472589305602014, -0.00032572157215327024, -0.0003041842137463391, -0.0002826468553394079, -0.00026110949693247676, -0.0002395721385255456, -0.00021803478011861444, -0.0001964974362635985, -0.00017496007785666734, -0.00015342271944973618, -0.00013188537559472024, -0.00011034801718778908, -8.881065878085792e-05, -6.727330037392676e-05, -4.573594924295321e-05, -2.4198594474000856e-05, -2.6612397050485015e-06, 1.8876115063903853e-05, 4.041346983285621e-05, 6.195082096382976e-05, 8.34881211631e-05, 0.00010502547957003117, 0.00012656283797696233, 0.00014810018183197826, 0.00016963754023890942, 0.00019117489864584059, 0.00021271224250085652, 0.00023424960090778768, 0.00025578695931471884, 0.00027732431772165, 0.00029886167612858117, 0.00032039903453551233, 0.00034193636383861303, 0.0003634737222455442, 0.00038501108065247536, 0.0004065484390594065, 0.0004280857974663377, 0.00044962315587326884, 0.0004711605142802, 0.0004926978726871312, 0.0005142352310940623, 0.0005357725895009935, 0.0005573099479079247, 0.0005788473063148558, 0.000600384664721787, 0.0006219219649210572, 0.0006434593233279884, 0.0006649966817349195, 0.0006865340401418507, 0.0007080713985487819, 0.000729608756955713, 0.0007511461153626442, 0.0007726834737695754]}, "gradients/conv1.bias": {"_type": "histogram", "values": [2.0, 0.0, 0.0, 0.0, 0.0, 0.0, 0.0, 0.0, 1.0, 0.0, 0.0, 1.0, 1.0, 2.0, 0.0, 0.0, 1.0, 1.0, 1.0, 0.0, 0.0, 2.0, 3.0, 2.0, 0.0, 1.0, 0.0, 1.0, 0.0, 2.0, 1.0, 0.0, 0.0, 1.0, 2.0, 1.0, 1.0, 0.0, 0.0, 2.0, 0.0, 0.0, 0.0, 0.0, 0.0, 0.0, 0.0, 1.0, 0.0, 0.0, 0.0, 0.0, 0.0, 0.0, 1.0, 0.0, 0.0, 0.0, 0.0, 0.0, 0.0, 0.0, 0.0, 1.0], "bins": [-0.0003871350490953773, -0.0003735872160177678, -0.00036003938294015825, -0.0003464915498625487, -0.00033294371678493917, -0.00031939588370732963, -0.00030584807973355055, -0.000292300246655941, -0.00027875241357833147, -0.00026520458050072193, -0.0002516567474231124, -0.00023810891434550285, -0.00022456108126789331, -0.00021101324819028378, -0.00019746542966458946, -0.00018391759658697993, -0.0001703697635093704, -0.00015682193043176085, -0.0001432740973541513, -0.000129726278828457, -0.00011617844575084746, -0.00010263061267323792, -8.908277959562838e-05, -7.553495379397646e-05, -6.198712071636692e-05, -4.8439291276736185e-05, -3.489146183710545e-05, -2.1343628759495914e-05, -7.795799319865182e-06, 5.752031029260252e-06, 1.9299861378385685e-05, 3.284769263700582e-05, 4.639552207663655e-05, 5.9943351516267285e-05, 7.349118095589802e-05, 8.703901403350756e-05, 0.00010058683983515948, 0.00011413467291276902, 0.00012768250599037856, 0.0001412303390679881, 0.0001547781575936824, 0.00016832599067129195, 0.00018187382374890149, 0.00019542165682651103, 0.00020896948990412056, 0.0002225173229817301, 0.00023606514150742441, 0.0002496129891369492, 0.00026316079311072826, 0.0002767086261883378, 0.00029025645926594734, 0.0003038042923435569, 0.0003173521254211664, 0.00033089995849877596, 0.0003444477915763855, 0.00035799562465399504, 0.0003715434577316046, 0.0003850912908092141, 0.00039863912388682365, 0.00041218692786060274, 0.0004257347609382123, 0.0004392825940158218, 0.00045283042709343135, 0.0004663782601710409, 0.00047992609324865043]}, "accuracy": 99.12, "_wandb": {"runtime": 194}}