{"accuracy": 10.23, "_timestamp": 1708543945.855621, "_runtime": 385.8888101577759, "_step": 90, "loss": 0.010743161975724433, "parameters/conv1.weight": {"_type": "histogram", "values": [2.0, 0.0, 0.0, 0.0, 3.0, 4.0, 1.0, 1.0, 10.0, 9.0, 11.0, 8.0, 5.0, 13.0, 5.0, 11.0, 11.0, 13.0, 20.0, 19.0, 23.0, 29.0, 26.0, 34.0, 16.0, 30.0, 27.0, 24.0, 26.0, 27.0, 24.0, 24.0, 23.0, 33.0, 28.0, 32.0, 24.0, 24.0, 23.0, 25.0, 13.0, 20.0, 15.0, 11.0, 8.0, 9.0, 5.0, 10.0, 7.0, 8.0, 5.0, 5.0, 3.0, 2.0, 2.0, 1.0, 0.0, 4.0, 0.0, 2.0, 0.0, 0.0, 1.0, 1.0], "bins": [-0.4101278781890869, -0.39611172676086426, -0.3820955455303192, -0.36807939410209656, -0.3540632128715515, -0.34004706144332886, -0.3260309100151062, -0.31201472878456116, -0.2979985773563385, -0.28398242592811584, -0.2699662446975708, -0.25595009326934814, -0.2419339269399643, -0.22791776061058044, -0.2139016091823578, -0.19988544285297394, -0.1858692765235901, -0.17185311019420624, -0.1578369438648224, -0.14382079243659973, -0.12980462610721588, -0.11578845977783203, -0.10177230089902878, -0.08775614202022552, -0.07373997569084167, -0.05972381308674812, -0.04570765048265457, -0.03169148787856102, -0.017675325274467468, -0.0036591626703739166, 0.010356999933719635, 0.024373162537813187, 0.03838932514190674, 0.05240548774600029, 0.06642165035009384, 0.0804378092288971, 0.09445397555828094, 0.1084701418876648, 0.12248630076646805, 0.1365024596452713, 0.15051862597465515, 0.164534792304039, 0.17855095863342285, 0.1925671100616455, 0.20658327639102936, 0.2205994427204132, 0.23461559414863586, 0.24863176047801971, 0.26264792680740356, 0.2766640782356262, 0.29068025946617126, 0.3046964108943939, 0.31871259212493896, 0.3327287435531616, 0.3467448949813843, 0.3607610762119293, 0.374777227640152, 0.38879337906837463, 0.4028095602989197, 0.41682571172714233, 0.430841863155365, 0.44485804438591003, 0.4588741958141327, 0.47289037704467773, 0.4869065284729004]}, "parameters/conv1.bias": {"_type": "histogram", "values": [1.0, 1.0, 0.0, 1.0, 0.0, 0.0, 0.0, 0.0, 1.0, 0.0, 2.0, 0.0, 0.0, 0.0, 1.0, 0.0, 0.0, 3.0, 0.0, 1.0, 0.0, 1.0, 1.0, 0.0, 0.0, 1.0, 0.0, 0.0, 1.0, 0.0, 0.0, 2.0, 0.0, 0.0, 1.0, 2.0, 1.0, 0.0, 0.0, 0.0, 0.0, 1.0, 0.0, 0.0, 0.0, 0.0, 1.0, 0.0, 1.0, 1.0, 0.0, 2.0, 1.0, 1.0, 0.0, 0.0, 1.0, 0.0, 0.0, 0.0, 0.0, 1.0, 0.0, 1.0], "bins": [-0.3373200297355652, -0.3330825865268707, -0.3288451135158539, -0.3246076703071594, -0.3203701972961426, -0.3161327540874481, -0.31189531087875366, -0.3076578378677368, -0.30342039465904236, -0.2991829514503479, -0.29494547843933105, -0.2907080352306366, -0.28647059202194214, -0.2822331190109253, -0.27799567580223083, -0.273758202791214, -0.26952075958251953, -0.2652833163738251, -0.2610458433628082, -0.25680840015411377, -0.2525709271430969, -0.24833348393440247, -0.244096040725708, -0.23985858261585236, -0.2356211245059967, -0.23138366639614105, -0.2271462082862854, -0.22290876507759094, -0.2186713069677353, -0.21443384885787964, -0.21019640564918518, -0.20595894753932953, -0.20172150433063507, -0.19748404622077942, -0.19324660301208496, -0.1890091449022293, -0.18477168679237366, -0.180534228682518, -0.17629677057266235, -0.1720593273639679, -0.16782186925411224, -0.1635844111442566, -0.15934696793556213, -0.15510950982570648, -0.15087205171585083, -0.14663459360599518, -0.14239713549613953, -0.13815969228744507, -0.13392223417758942, -0.12968477606773376, -0.1254473328590393, -0.12120987474918365, -0.116972416639328, -0.11273495852947235, -0.1084975078701973, -0.10426005721092224, -0.10002259910106659, -0.09578514099121094, -0.09154769033193588, -0.08731023967266083, -0.08307278156280518, -0.07883532345294952, -0.07459787279367447, -0.07036042213439941, -0.06612296402454376]}, "parameters/conv2.weight": {"_type": "histogram", "values": [1.0, 0.0, 0.0, 2.0, 1.0, 4.0, 3.0, 8.0, 2.0, 7.0, 19.0, 18.0, 17.0, 31.0, 37.0, 50.0, 76.0, 102.0, 153.0, 164.0, 211.0, 283.0, 333.0, 417.0, 569.0, 645.0, 735.0, 882.0, 1090.0, 1286.0, 1507.0, 1702.0, 1980.0, 2234.0, 2585.0, 3005.0, 3492.0, 3754.0, 3659.0, 3414.0, 3190.0, 2531.0, 2083.0, 1869.0, 1536.0, 1344.0, 1047.0, 784.0, 660.0, 476.0, 367.0, 254.0, 201.0, 117.0, 97.0, 54.0, 46.0, 35.0, 17.0, 6.0, 2.0, 3.0, 1.0, 2.0], "bins": [-0.49398210644721985, -0.4813142716884613, -0.46864643692970276, -0.4559786021709442, -0.44331079721450806, -0.4306429624557495, -0.41797512769699097, -0.4053072929382324, -0.3926394581794739, -0.37997162342071533, -0.3673037886619568, -0.35463595390319824, -0.3419681191444397, -0.32930031418800354, -0.316632479429245, -0.30396464467048645, -0.2912968099117279, -0.27862897515296936, -0.2659611403942108, -0.25329330563545227, -0.24062548577785492, -0.22795765101909637, -0.21528983116149902, -0.20262199640274048, -0.18995416164398193, -0.1772863268852234, -0.16461849212646484, -0.1519506722688675, -0.13928283751010895, -0.1266150027513504, -0.11394717544317245, -0.1012793481349945, -0.08861151337623596, -0.07594367861747742, -0.06327585130929947, -0.05060802027583122, -0.037940189242362976, -0.02527235820889473, -0.012604527175426483, 6.33038580417633e-05, 0.01273113489151001, 0.025398965924978256, 0.0380667969584465, 0.05073462799191475, 0.063402459025383, 0.07607029378414154, 0.08873812109231949, 0.10140594840049744, 0.11407378315925598, 0.12674161791801453, 0.13940945267677307, 0.15207727253437042, 0.16474510729312897, 0.1774129420518875, 0.19008076190948486, 0.2027485966682434, 0.21541643142700195, 0.2280842661857605, 0.24075210094451904, 0.2534199357032776, 0.26608777046203613, 0.2787555754184723, 0.29142341017723083, 0.3040912449359894, 0.3167590796947479]}, "parameters/conv2.bias": {"_type": "histogram", "values": [1.0, 0.0, 0.0, 0.0, 0.0, 0.0, 0.0, 0.0, 0.0, 0.0, 0.0, 0.0, 0.0, 0.0, 0.0, 0.0, 0.0, 0.0, 1.0, 2.0, 0.0, 2.0, 3.0, 0.0, 0.0, 0.0, 1.0, 1.0, 1.0, 1.0, 1.0, 3.0, 1.0, 0.0, 1.0, 3.0, 0.0, 4.0, 3.0, 3.0, 2.0, 4.0, 1.0, 4.0, 2.0, 2.0, 0.0, 2.0, 1.0, 1.0, 2.0, 0.0, 2.0, 1.0, 1.0, 1.0, 0.0, 0.0, 0.0, 1.0, 1.0, 2.0, 1.0, 1.0], "bins": [-0.1469002366065979, -0.1441517472267151, -0.14140327274799347, -0.13865478336811066, -0.13590629398822784, -0.13315781950950623, -0.1304093301296234, -0.1276608407497406, -0.12491235882043839, -0.12216387689113617, -0.11941538751125336, -0.11666690558195114, -0.11391842365264893, -0.11116993427276611, -0.1084214523434639, -0.10567296296358109, -0.10292448103427887, -0.10017599910497665, -0.09742750972509384, -0.09467902779579163, -0.09193053841590881, -0.0891820564866066, -0.08643357455730438, -0.08368508517742157, -0.08093660324811935, -0.07818812131881714, -0.07543963193893433, -0.07269115000963211, -0.0699426680803299, -0.06719417870044708, -0.06444569677114487, -0.06169721111655235, -0.05894871801137924, -0.056200236082077026, -0.05345175042748451, -0.050703264772892, -0.04795478284358978, -0.04520629718899727, -0.042457811534404755, -0.03970932587981224, -0.03696084022521973, -0.03421235829591751, -0.031463872641325, -0.028715386986732483, -0.025966903194785118, -0.023218419402837753, -0.02046993374824524, -0.017721448093652725, -0.01497296430170536, -0.012224479578435421, -0.009475994855165482, -0.006727510131895542, -0.003979025408625603, -0.0012305406853556633, 0.0015179440379142761, 0.0042664287611842155, 0.007014913484454155, 0.009763398207724094, 0.012511882930994034, 0.015260367654263973, 0.018008852377533913, 0.020757336169481277, 0.02350582182407379, 0.026254307478666306, 0.02900279127061367]}, "parameters/fc1.weight": {"_type": "histogram", "values": [1.0, 0.0, 1.0, 0.0, 0.0, 0.0, 0.0, 1.0, 0.0, 3.0, 7.0, 11.0, 11.0, 23.0, 28.0, 52.0, 53.0, 87.0, 110.0, 156.0, 278.0, 354.0, 485.0, 677.0, 941.0, 1279.0, 1668.0, 2223.0, 2867.0, 3527.0, 4477.0, 5584.0, 6996.0, 12612.0, 15330.0, 15365.0, 14604.0, 11339.0, 6312.0, 5339.0, 4414.0, 3551.0, 2770.0, 2190.0, 1561.0, 1187.0, 858.0, 592.0, 390.0, 277.0, 162.0, 98.0, 91.0, 45.0, 32.0, 26.0, 12.0, 7.0, 2.0, 3.0, 1.0, 1.0, 0.0, 1.0], "bins": [-0.5043393969535828, -0.49023622274398804, -0.4761330783367157, -0.46202990412712097, -0.44792675971984863, -0.4338235855102539, -0.41972044110298157, -0.40561726689338684, -0.3915141224861145, -0.3774109482765198, -0.36330777406692505, -0.3492046296596527, -0.335101455450058, -0.32099831104278564, -0.3068951368331909, -0.2927919924259186, -0.27868881821632385, -0.2645856440067291, -0.2504824995994568, -0.23637934029102325, -0.22227618098258972, -0.208173006772995, -0.19406984746456146, -0.17996668815612793, -0.1658635288476944, -0.15176036953926086, -0.13765721023082733, -0.1235540434718132, -0.10945088416337967, -0.09534772485494614, -0.081244558095932, -0.06714139878749847, -0.05303823947906494, -0.03893508017063141, -0.024831917136907578, -0.010728755965828896, 0.0033744052052497864, 0.01747756637632847, 0.03158072754740715, 0.04568389058113098, 0.059787049889564514, 0.07389020919799805, 0.08799336850643158, 0.10209653526544571, 0.11619969457387924, 0.13030286133289337, 0.1444060206413269, 0.15850917994976044, 0.17261233925819397, 0.1867154985666275, 0.20081865787506104, 0.21492181718349457, 0.2290249764919281, 0.24312815070152283, 0.25723129510879517, 0.2713344693183899, 0.2854376435279846, 0.29954078793525696, 0.3136439621448517, 0.327747106552124, 0.34185028076171875, 0.3559534251689911, 0.3700565993785858, 0.38415974378585815, 0.3982629179954529]}, "parameters/fc1.bias": {"_type": "histogram", "values": [2.0, 0.0, 0.0, 2.0, 0.0, 1.0, 0.0, 2.0, 0.0, 1.0, 1.0, 3.0, 1.0, 2.0, 2.0, 2.0, 2.0, 2.0, 4.0, 3.0, 4.0, 6.0, 5.0, 4.0, 5.0, 6.0, 5.0, 8.0, 6.0, 2.0, 5.0, 2.0, 3.0, 6.0, 3.0, 2.0, 3.0, 1.0, 3.0, 2.0, 2.0, 0.0, 2.0, 3.0, 0.0, 2.0, 0.0, 0.0, 0.0, 1.0, 1.0, 2.0, 0.0, 1.0, 0.0, 1.0, 1.0, 0.0, 0.0, 0.0, 0.0, 0.0, 0.0, 1.0], "bins": [-0.10603466629981995, -0.10250356048345566, -0.09897245466709137, -0.09544134140014648, -0.0919102355837822, -0.08837912976741791, -0.08484802395105362, -0.08131691068410873, -0.07778580486774445, -0.07425469905138016, -0.07072359323501587, -0.06719248741865158, -0.0636613741517067, -0.06013026833534241, -0.05659916251897812, -0.05306805297732353, -0.049536947160959244, -0.046005841344594955, -0.04247473180294037, -0.03894362598657608, -0.035412516444921494, -0.031881410628557205, -0.028350302949547768, -0.02481919527053833, -0.021288087591528893, -0.017756979912519455, -0.014225872233510017, -0.010694765485823154, -0.007163657806813717, -0.003632550360634923, -0.00010144291445612907, 0.003429664531722665, 0.006960771977901459, 0.010491879656910896, 0.014022987335920334, 0.01755409501492977, 0.02108520269393921, 0.024616308510303497, 0.028147416189312935, 0.03167852386832237, 0.03520963340997696, 0.03874073922634125, 0.042271845042705536, 0.04580295458436012, 0.04933406040072441, 0.052865169942379, 0.056396275758743286, 0.05992738530039787, 0.06345848739147186, 0.06698960065841675, 0.07052070647478104, 0.07405181229114532, 0.07758291810750961, 0.0811140313744545, 0.08464513719081879, 0.08817624300718307, 0.09170734882354736, 0.09523845463991165, 0.09876956790685654, 0.10230067372322083, 0.10583177953958511, 0.1093628853559494, 0.11289399862289429, 0.11642510443925858, 0.11995621025562286]}, "parameters/fc2.weight": {"_type": "histogram", "values": [1.0, 1.0, 0.0, 1.0, 4.0, 3.0, 3.0, 2.0, 9.0, 9.0, 7.0, 7.0, 12.0, 11.0, 12.0, 14.0, 12.0, 17.0, 21.0, 15.0, 18.0, 15.0, 21.0, 32.0, 33.0, 31.0, 43.0, 44.0, 36.0, 39.0, 47.0, 48.0, 48.0, 49.0, 39.0, 45.0, 55.0, 57.0, 51.0, 48.0, 41.0, 42.0, 50.0, 41.0, 43.0, 25.0, 20.0, 17.0, 18.0, 7.0, 7.0, 2.0, 1.0, 1.0, 0.0, 2.0, 0.0, 0.0, 1.0, 0.0, 0.0, 0.0, 1.0, 1.0], "bins": [-0.3269087076187134, -0.31738418340682983, -0.3078596591949463, -0.29833513498306274, -0.2888106405735016, -0.27928611636161804, -0.2697615921497345, -0.26023706793785095, -0.2507125437259674, -0.24118803441524506, -0.2316635102033615, -0.22213898599147797, -0.21261447668075562, -0.20308995246887207, -0.19356542825698853, -0.18404091894626617, -0.17451639473438263, -0.16499187052249908, -0.15546736121177673, -0.1459428369998932, -0.13641831278800964, -0.1268938034772873, -0.11736927926540375, -0.1078447550535202, -0.09832023829221725, -0.0887957215309143, -0.07927119731903076, -0.06974668055772781, -0.06022216007113457, -0.05069763958454132, -0.04117312282323837, -0.031648602336645126, -0.02212408185005188, -0.012599562294781208, -0.003075042739510536, 0.006449476815760136, 0.015973996371030807, 0.025498516857624054, 0.035023033618927, 0.04454755410552025, 0.054072074592113495, 0.06359659135341644, 0.07312111556529999, 0.08264563232660294, 0.09217014908790588, 0.10169467329978943, 0.11121919006109238, 0.12074371427297592, 0.13026823103427887, 0.13979275524616241, 0.14931726455688477, 0.1588417887687683, 0.16836631298065186, 0.1778908222913742, 0.18741534650325775, 0.1969398707151413, 0.20646438002586365, 0.2159889042377472, 0.22551342844963074, 0.23503795266151428, 0.24456246197223663, 0.254086971282959, 0.26361149549484253, 0.2731360197067261, 0.2826605439186096]}, "parameters/fc2.bias": {"_type": "histogram", "values": [1.0, 0.0, 0.0, 0.0, 0.0, 0.0, 0.0, 0.0, 0.0, 0.0, 0.0, 0.0, 0.0, 0.0, 0.0, 0.0, 2.0, 0.0, 1.0, 0.0, 0.0, 0.0, 0.0, 0.0, 0.0, 0.0, 0.0, 0.0, 0.0, 0.0, 0.0, 0.0, 0.0, 0.0, 1.0, 0.0, 0.0, 0.0, 1.0, 0.0, 0.0, 0.0, 1.0, 0.0, 0.0, 0.0, 0.0, 0.0, 0.0, 0.0, 1.0, 0.0, 0.0, 0.0, 0.0, 0.0, 0.0, 0.0, 0.0, 0.0, 0.0, 0.0, 1.0, 1.0], "bins": [-0.14311808347702026, -0.13873699307441711, -0.13435588777065277, -0.12997479736804962, -0.12559369206428528, -0.12121259421110153, -0.11683149635791779, -0.11245039850473404, -0.10806930065155029, -0.10368821024894714, -0.0993071123957634, -0.09492601454257965, -0.0905449166893959, -0.08616381883621216, -0.08178272098302841, -0.07740162312984467, -0.07302052527666092, -0.06863942742347717, -0.06425832957029343, -0.05987723171710968, -0.055496133863925934, -0.051115039736032486, -0.04673394188284874, -0.04235284402966499, -0.03797174617648125, -0.0335906483232975, -0.029209550470113754, -0.024828454479575157, -0.02044735662639141, -0.016066258773207664, -0.011685161851346493, -0.007304064463824034, -0.0029229670763015747, 0.0014581303112208843, 0.005839227698743343, 0.010220324620604515, 0.014601422473788261, 0.018982520326972008, 0.023363616317510605, 0.02774471417069435, 0.0321258120238781, 0.036506909877061844, 0.04088800773024559, 0.04526910558342934, 0.049650199711322784, 0.05403129756450653, 0.05841239541769028, 0.06279349327087402, 0.06717459112405777, 0.07155568897724152, 0.07593678683042526, 0.08031788468360901, 0.08469898253679276, 0.0890800803899765, 0.09346117824316025, 0.097842276096344, 0.10222336649894714, 0.10660446435213089, 0.11098556220531464, 0.11536666005849838, 0.11974775791168213, 0.12412885576486588, 0.12850995361804962, 0.13289105892181396, 0.13727214932441711]}, "gradients/fc2.bias": {"_type": "histogram", "values": [1.0, 0.0, 0.0, 0.0, 0.0, 0.0, 0.0, 0.0, 0.0, 0.0, 0.0, 0.0, 0.0, 0.0, 0.0, 0.0, 0.0, 0.0, 0.0, 0.0, 0.0, 0.0, 0.0, 0.0, 0.0, 0.0, 0.0, 0.0, 0.0, 0.0, 0.0, 3.0, 5.0, 0.0, 0.0, 0.0, 0.0, 0.0, 0.0, 0.0, 0.0, 0.0, 0.0, 0.0, 0.0, 0.0, 0.0, 0.0, 0.0, 0.0, 0.0, 0.0, 0.0, 0.0, 0.0, 0.0, 0.0, 0.0, 0.0, 0.0, 0.0, 0.0, 0.0, 1.0], "bins": [-0.015392095781862736, -0.014911744743585587, -0.014431393705308437, -0.013951043598353863, -0.013470692560076714, -0.012990341521799564, -0.012509990483522415, -0.012029639445245266, -0.011549288406968117, -0.011068938300013542, -0.010588587261736393, -0.010108236223459244, -0.009627885185182095, -0.009147534146904945, -0.00866718403995037, -0.008186833001673222, -0.007706481963396072, -0.007226130925118923, -0.006745780352503061, -0.006265429314225912, -0.00578507874161005, -0.005304727703332901, -0.004824376665055752, -0.00434402609243989, -0.0038636750541627407, -0.003383324248716235, -0.0029029734432697296, -0.0024226224049925804, -0.0019422715995460749, -0.0014619207940995693, -0.000981569872237742, -0.0005012190085835755, -2.0869076251983643e-05, 0.0004594817874021828, 0.0009398326510563493, 0.0014201835729181767, 0.0019005343783646822, 0.0023808851838111877, 0.002861236222088337, 0.0033415870275348425, 0.003821937832981348, 0.004302288871258497, 0.004782639443874359, 0.005262990482151508, 0.0057433415204286575, 0.006223692093044519, 0.006704043131321669, 0.0071843937039375305, 0.00766474474221468, 0.008145095780491829, 0.008625446818768978, 0.009105796925723553, 0.009586147964000702, 0.010066499002277851, 0.010546850040555, 0.01102720107883215, 0.011507552117109299, 0.011987902224063873, 0.012468253262341022, 0.012948604300618172, 0.013428955338895321, 0.01390930637717247, 0.014389656484127045, 0.014870007522404194, 0.015350358560681343]}, "gradients/fc2.weight": {"_type": "histogram", "values": [3.0, 1.0, 1.0, 0.0, 0.0, 1.0, 0.0, 2.0, 1.0, 2.0, 0.0, 0.0, 1.0, 0.0, 1.0, 1.0, 1.0, 1.0, 3.0, 5.0, 3.0, 1.0, 2.0, 1.0, 4.0, 1.0, 2.0, 2.0, 0.0, 2.0, 2.0, 38.0, 1154.0, 2.0, 1.0, 1.0, 2.0, 2.0, 1.0, 3.0, 1.0, 3.0, 1.0, 3.0, 4.0, 2.0, 3.0, 1.0, 1.0, 1.0, 0.0, 1.0, 0.0, 0.0, 2.0, 2.0, 1.0, 0.0, 1.0, 0.0, 0.0, 1.0, 1.0, 3.0], "bins": [-0.26223546266555786, -0.2540583312511444, -0.24588119983673096, -0.2377040833234787, -0.22952695190906525, -0.2213498204946518, -0.21317270398139954, -0.20499557256698608, -0.19681844115257263, -0.18864130973815918, -0.18046417832374573, -0.17228706181049347, -0.16410993039608002, -0.15593279898166656, -0.1477556824684143, -0.13957855105400085, -0.1314014196395874, -0.12322428822517395, -0.1150471642613411, -0.10687004029750824, -0.09869290888309479, -0.09051577746868134, -0.08233865350484848, -0.07416152954101562, -0.06598439812660217, -0.05780727043747902, -0.049630142748355865, -0.04145301505923271, -0.03327588737010956, -0.025098759680986404, -0.01692163199186325, -0.008744504302740097, -0.0005674064159393311, 0.007609721273183823, 0.015786848962306976, 0.02396397665143013, 0.032141104340553284, 0.04031823202967644, 0.04849535971879959, 0.056672487407922745, 0.0648496150970459, 0.07302674651145935, 0.0812038704752922, 0.08938099443912506, 0.09755812585353851, 0.10573525726795197, 0.11391238123178482, 0.12208950519561768, 0.13026663661003113, 0.13844376802444458, 0.14662089943885803, 0.1547980159521103, 0.16297514736652374, 0.1711522787809372, 0.17932939529418945, 0.1875065267086029, 0.19568365812301636, 0.2038607895374298, 0.21203792095184326, 0.22021503746509552, 0.22839216887950897, 0.23656930029392242, 0.24474641680717468, 0.25292354822158813, 0.2611006796360016]}, "gradients/fc1.bias": {"_type": "histogram", "values": [1.0, 1.0, 1.0, 0.0, 0.0, 1.0, 0.0, 0.0, 0.0, 0.0, 0.0, 0.0, 1.0, 0.0, 0.0, 0.0, 0.0, 0.0, 1.0, 0.0, 1.0, 0.0, 2.0, 0.0, 2.0, 1.0, 1.0, 2.0, 1.0, 2.0, 76.0, 10.0, 1.0, 2.0, 1.0, 1.0, 0.0, 3.0, 2.0, 1.0, 2.0, 2.0, 1.0, 0.0, 1.0, 3.0, 0.0, 0.0, 0.0, 1.0, 0.0, 1.0, 0.0, 0.0, 0.0, 0.0, 1.0, 0.0, 0.0, 0.0, 0.0, 0.0, 0.0, 1.0], "bins": [-0.00573335774242878, -0.005548169370740652, -0.005362980999052525, -0.005177792627364397, -0.0049926042556762695, -0.004807415883988142, -0.0046222275123000145, -0.004437039140611887, -0.0042518507689237595, -0.004066661931574345, -0.0038814737927168608, -0.0036962854210287333, -0.003511096816509962, -0.0033259084448218346, -0.003140720073133707, -0.0029555317014455795, -0.002770343329757452, -0.0025851549580693245, -0.002399966586381197, -0.0022147782146930695, -0.002029589843004942, -0.0018444013549014926, -0.0016592128667980433, -0.0014740244951099157, -0.0012888361234217882, -0.0011036477517336607, -0.0009184593218378723, -0.0007332708919420838, -0.0005480825202539563, -0.00036289411946199834, -0.00017770571867004037, 7.482682121917605e-06, 0.00019267108291387558, 0.00037785948370583355, 0.0005630478844977915, 0.00074823631439358, 0.0009334246860817075, 0.001118613057769835, 0.0013038015458732843, 0.0014889899175614119, 0.0016741782892495394, 0.001859366660937667, 0.0020445550326257944, 0.002229743404313922, 0.002414932008832693, 0.0026001203805208206, 0.002785308752208948, 0.0029704971238970757, 0.003155685495585203, 0.0033408738672733307, 0.003526062238961458, 0.0037112506106495857, 0.0038964389823377132, 0.004081627354025841, 0.004266815725713968, 0.004452004097402096, 0.004637192934751511, 0.004822381306439638, 0.005007569678127766, 0.005192758049815893, 0.005377946421504021, 0.005563134793192148, 0.005748323164880276, 0.005933511536568403, 0.006118699908256531]}, "gradients/fc1.weight": {"_type": "histogram", "values": [2.0, 0.0, 1.0, 2.0, 2.0, 2.0, 3.0, 2.0, 6.0, 3.0, 7.0, 7.0, 8.0, 11.0, 12.0, 11.0, 22.0, 19.0, 23.0, 28.0, 22.0, 41.0, 57.0, 68.0, 86.0, 105.0, 145.0, 245.0, 368.0, 634.0, 122875.0, 3421.0, 949.0, 584.0, 370.0, 255.0, 176.0, 126.0, 94.0, 58.0, 63.0, 32.0, 20.0, 21.0, 22.0, 11.0, 11.0, 9.0, 5.0, 8.0, 2.0, 3.0, 4.0, 3.0, 1.0, 1.0, 2.0, 0.0, 1.0, 0.0, 2.0, 0.0, 0.0, 1.0], "bins": [-0.0591188445687294, -0.05720991641283035, -0.055300988256931305, -0.053392063826322556, -0.05148313567042351, -0.04957420751452446, -0.04766527935862541, -0.045756351202726364, -0.043847426772117615, -0.04193849861621857, -0.04002957046031952, -0.03812064230442047, -0.03621171414852142, -0.034302785992622375, -0.032393861562013626, -0.030484933406114578, -0.02857600525021553, -0.026667077094316483, -0.024758150801062584, -0.022849222645163536, -0.020940296351909637, -0.01903136819601059, -0.017122440040111542, -0.015213512815535069, -0.013304585590958595, -0.011395658366382122, -0.009486731141805649, -0.007577802985906601, -0.005668875761330128, -0.003759948303923011, -0.001851020846515894, 5.7906610891222954e-05, 0.00196683406829834, 0.0038757615257054567, 0.005784688983112574, 0.007693616673350334, 0.009602543897926807, 0.01151147112250328, 0.013420399278402328, 0.015329326502978802, 0.017238253727555275, 0.019147181883454323, 0.02105610817670822, 0.02296503633260727, 0.024873964488506317, 0.026782890781760216, 0.028691818937659264, 0.030600745230913162, 0.03250967338681221, 0.03441860154271126, 0.036327529698610306, 0.038236454129219055, 0.0401453822851181, 0.04205431044101715, 0.0439632385969162, 0.04587216675281525, 0.047781094908714294, 0.049690019339323044, 0.05159894749522209, 0.05350787565112114, 0.05541680380702019, 0.057325731962919235, 0.059234656393527985, 0.06114358454942703, 0.06305251270532608]}, "gradients/conv2.weight": {"_type": "histogram", "values": [1.0, 0.0, 0.0, 0.0, 0.0, 0.0, 1.0, 0.0, 0.0, 0.0, 2.0, 1.0, 2.0, 0.0, 1.0, 3.0, 2.0, 6.0, 4.0, 11.0, 6.0, 17.0, 20.0, 36.0, 31.0, 59.0, 65.0, 81.0, 127.0, 176.0, 241.0, 313.0, 451.0, 560.0, 810.0, 1300.0, 2148.0, 4123.0, 31138.0, 3922.0, 2033.0, 1175.0, 775.0, 484.0, 346.0, 221.0, 131.0, 119.0, 87.0, 67.0, 30.0, 21.0, 18.0, 13.0, 6.0, 4.0, 9.0, 1.0, 0.0, 1.0, 0.0, 0.0, 0.0, 1.0], "bins": [-0.047431088984012604, -0.046195756644010544, -0.04496042802929878, -0.04372509568929672, -0.04248976707458496, -0.0412544347345829, -0.04001910239458084, -0.03878377377986908, -0.03754844143986702, -0.03631310909986496, -0.0350777804851532, -0.03384244814515114, -0.03260711580514908, -0.03137178719043732, -0.030136454850435257, -0.028901124373078346, -0.027665793895721436, -0.026430463418364525, -0.025195132941007614, -0.023959800601005554, -0.022724470123648643, -0.021489139646291733, -0.020253807306289673, -0.019018476828932762, -0.01778314635157585, -0.01654781587421894, -0.015312484465539455, -0.01407715305685997, -0.01284182257950306, -0.011606492102146149, -0.010371160693466663, -0.009135829284787178, -0.007900502532720566, -0.006665171589702368, -0.00542984064668417, -0.004194509703665972, -0.0029591787606477737, -0.0017238478176295757, -0.0004885168746113777, 0.0007468140684068203, 0.0019821450114250183, 0.0032174759544432163, 0.004452806897461414, 0.005688137840479612, 0.00692346878349781, 0.008158799260854721, 0.009394130669534206, 0.010629462078213692, 0.011864792555570602, 0.013100123032927513, 0.014335454441606998, 0.015570785850286484, 0.016806116327643394, 0.018041446805000305, 0.019276779145002365, 0.020512109622359276, 0.021747440099716187, 0.022982770577073097, 0.024218101054430008, 0.025453433394432068, 0.02668876387178898, 0.02792409434914589, 0.02915942668914795, 0.03039475716650486, 0.03163008764386177]}, "gradients/conv2.bias": {"_type": "histogram", "values": [1.0, 0.0, 0.0, 0.0, 0.0, 0.0, 0.0, 0.0, 2.0, 0.0, 0.0, 0.0, 1.0, 0.0, 1.0, 0.0, 0.0, 0.0, 0.0, 2.0, 0.0, 2.0, 0.0, 1.0, 2.0, 0.0, 1.0, 1.0, 2.0, 3.0, 3.0, 1.0, 2.0, 0.0, 0.0, 2.0, 1.0, 9.0, 1.0, 3.0, 1.0, 0.0, 2.0, 1.0, 2.0, 3.0, 1.0, 2.0, 0.0, 0.0, 2.0, 0.0, 3.0, 1.0, 0.0, 1.0, 1.0, 0.0, 0.0, 2.0, 0.0, 0.0, 0.0, 1.0], "bins": [-0.01905449852347374, -0.018541429191827774, -0.01802835986018181, -0.017515290528535843, -0.017002221196889877, -0.016489150002598763, -0.015976080670952797, -0.015463011339306831, -0.014949942007660866, -0.0144368726760149, -0.013923803344368935, -0.013410733081400394, -0.012897663749754429, -0.012384594418108463, -0.011871524155139923, -0.011358454823493958, -0.010845385491847992, -0.010332316160202026, -0.00981924682855606, -0.00930617656558752, -0.008793107233941555, -0.00828003790229559, -0.0077669681049883366, -0.007253898307681084, -0.006740828976035118, -0.0062277596443891525, -0.0057146898470819, -0.005201620049774647, -0.004688550718128681, -0.004175481386482716, -0.0036624115891754627, -0.0031493420246988535, -0.0026362715288996696, -0.0021232019644230604, -0.0016101323999464512, -0.001097062835469842, -0.0005839932709932327, -7.09237065166235e-05, 0.00044214585795998573, 0.000955215422436595, 0.0014682849869132042, 0.0019813545513898134, 0.0024944241158664227, 0.003007493680343032, 0.003520563244819641, 0.004033632576465607, 0.00454670237377286, 0.0050597721710801125, 0.005572841502726078, 0.006085910834372044, 0.0065989806316792965, 0.007112050428986549, 0.007625119760632515, 0.00813818909227848, 0.008651258423924446, 0.009164328686892986, 0.009677398018538952, 0.010190467350184917, 0.010703537613153458, 0.011216606944799423, 0.011729676276445389, 0.012242745608091354, 0.01275581493973732, 0.01326888520270586, 0.013781954534351826]}, "gradients/conv1.weight": {"_type": "histogram", "values": [1.0, 0.0, 0.0, 4.0, 8.0, 2.0, 1.0, 7.0, 3.0, 2.0, 3.0, 2.0, 4.0, 4.0, 7.0, 8.0, 6.0, 9.0, 10.0, 15.0, 28.0, 19.0, 24.0, 27.0, 29.0, 31.0, 35.0, 24.0, 45.0, 41.0, 29.0, 43.0, 44.0, 33.0, 39.0, 26.0, 26.0, 12.0, 30.0, 20.0, 10.0, 15.0, 13.0, 7.0, 9.0, 9.0, 6.0, 2.0, 3.0, 5.0, 3.0, 4.0, 1.0, 3.0, 1.0, 0.0, 2.0, 0.0, 0.0, 1.0, 2.0, 1.0, 0.0, 2.0], "bins": [-0.08481922000646591, -0.08201267570257187, -0.07920612394809723, -0.07639957964420319, -0.07359303534030914, -0.0707864835858345, -0.06797993928194046, -0.06517339497804642, -0.062366846948862076, -0.059560298919677734, -0.05675375461578369, -0.05394720658659935, -0.05114065855741501, -0.048334114253520966, -0.045527566224336624, -0.04272102192044258, -0.03991447389125824, -0.0371079258620739, -0.034301381558179855, -0.031494833528995514, -0.02868828736245632, -0.02588174119591713, -0.023075193166732788, -0.020268647000193596, -0.017462100833654404, -0.014655554667115211, -0.011849007569253445, -0.009042460471391678, -0.006235914304852486, -0.003429367672652006, -0.0006228210404515266, 0.002183725591748953, 0.0049902647733688354, 0.007796811405569315, 0.010603358037769794, 0.013409905135631561, 0.016216451302170753, 0.019022997468709946, 0.021829545497894287, 0.02463609166443348, 0.02744263783097267, 0.030249183997511864, 0.033055730164051056, 0.0358622781932354, 0.03866882622241974, 0.04147537052631378, 0.04428191855549812, 0.047088462859392166, 0.04989501088857651, 0.05270155891776085, 0.05550810322165489, 0.05831465125083923, 0.061121195554733276, 0.06392774730920792, 0.06673429161310196, 0.069540835916996, 0.07234738767147064, 0.07515393197536469, 0.07796047627925873, 0.08076702058315277, 0.08357357233762741, 0.08638011664152145, 0.0891866609454155, 0.09199321269989014, 0.09479975700378418]}, "gradients/conv1.bias": {"_type": "histogram", "values": [1.0, 0.0, 1.0, 0.0, 0.0, 0.0, 0.0, 0.0, 0.0, 0.0, 0.0, 0.0, 0.0, 0.0, 1.0, 1.0, 1.0, 0.0, 0.0, 0.0, 1.0, 2.0, 1.0, 0.0, 0.0, 0.0, 0.0, 0.0, 2.0, 2.0, 2.0, 0.0, 2.0, 0.0, 1.0, 1.0, 0.0, 0.0, 0.0, 0.0, 1.0, 0.0, 2.0, 1.0, 0.0, 3.0, 0.0, 0.0, 0.0, 0.0, 0.0, 0.0, 0.0, 1.0, 0.0, 0.0, 2.0, 1.0, 0.0, 0.0, 0.0, 0.0, 1.0, 1.0], "bins": [-0.08257417380809784, -0.08013846725225449, -0.07770276814699173, -0.07526706159114838, -0.07283136248588562, -0.07039565593004227, -0.06795995682477951, -0.06552425026893616, -0.0630885511636734, -0.06065284460783005, -0.05821714177727699, -0.05578143894672394, -0.053345732390880585, -0.05091002956032753, -0.048474326729774475, -0.04603862389922142, -0.043602921068668365, -0.04116721823811531, -0.038731515407562256, -0.0362958125770092, -0.033860109746456146, -0.03142440319061279, -0.028988700360059738, -0.026552997529506683, -0.02411729469895363, -0.021681591868400574, -0.01924588903784752, -0.016810184344649315, -0.01437448151409626, -0.011938778683543205, -0.009503074921667576, -0.007067371625453234, -0.004631668329238892, -0.0021959650330245495, 0.00023973826318979263, 0.0026754415594041348, 0.005111144855618477, 0.007546848151832819, 0.009982551448047161, 0.01241825520992279, 0.014853958040475845, 0.0172896608710289, 0.019725363701581955, 0.02216106839478016, 0.024596771225333214, 0.02703247405588627, 0.029468178749084473, 0.03190388157963753, 0.03433958441019058, 0.03677528724074364, 0.03921099007129669, 0.04164669290184975, 0.0440823957324028, 0.046518102288246155, 0.04895380511879921, 0.051389507949352264, 0.05382521077990532, 0.056260913610458374, 0.05869661644101143, 0.061132319271564484, 0.06356802582740784, 0.0660037249326706, 0.06843943148851395, 0.0708751305937767, 0.07331083714962006]}, "_wandb": {"runtime": 296}}