{"loss": 0.008572526319685494, "_timestamp": 1708822417.9042926, "_runtime": 229.5810465812683, "_step": 90, "parameters/graph_3conv1.weight": {"_type": "histogram", "values": [1.0, 0.0, 0.0, 5.0, 3.0, 1.0, 4.0, 5.0, 8.0, 7.0, 9.0, 7.0, 13.0, 15.0, 18.0, 16.0, 16.0, 17.0, 17.0, 23.0, 18.0, 32.0, 28.0, 26.0, 24.0, 37.0, 23.0, 20.0, 29.0, 25.0, 32.0, 25.0, 19.0, 20.0, 23.0, 16.0, 24.0, 28.0, 15.0, 15.0, 14.0, 16.0, 16.0, 16.0, 15.0, 10.0, 6.0, 10.0, 3.0, 3.0, 4.0, 7.0, 7.0, 1.0, 1.0, 2.0, 1.0, 1.0, 2.0, 0.0, 0.0, 0.0, 0.0, 1.0], "bins": [-0.396785706281662, -0.3826940655708313, -0.3686023950576782, -0.35451075434684753, -0.34041911363601685, -0.32632744312286377, -0.3122358024120331, -0.29814413189888, -0.2840524911880493, -0.26996085047721863, -0.25586917996406555, -0.24177753925323486, -0.22768588364124298, -0.2135942280292511, -0.1995025873184204, -0.18541093170642853, -0.17131927609443665, -0.15722762048244476, -0.14313596487045288, -0.1290443241596222, -0.11495266854763031, -0.10086101293563843, -0.08676936477422714, -0.07267771661281586, -0.058586061000823975, -0.04449440911412239, -0.030402757227420807, -0.016311105340719223, -0.002219453454017639, 0.011872198432683945, 0.02596385031938553, 0.04005550220608711, 0.054147183895111084, 0.06823883950710297, 0.08233048766851425, 0.09642213582992554, 0.11051379144191742, 0.1246054470539093, 0.13869708776474, 0.15278874337673187, 0.16688039898872375, 0.18097205460071564, 0.19506371021270752, 0.2091553509235382, 0.2232470065355301, 0.23733866214752197, 0.25143030285835266, 0.26552197337150574, 0.2796136140823364, 0.2937052547931671, 0.3077969253063202, 0.3218885660171509, 0.33598023653030396, 0.35007187724113464, 0.36416351795196533, 0.3782551884651184, 0.3923468291759491, 0.4064384698867798, 0.42053014039993286, 0.43462178111076355, 0.44871342182159424, 0.4628050923347473, 0.476896733045578, 0.4909884035587311, 0.5050800442695618]}, "parameters/graph_3conv1.bias": {"_type": "histogram", "values": [1.0, 0.0, 0.0, 1.0, 0.0, 0.0, 1.0, 1.0, 0.0, 0.0, 0.0, 1.0, 0.0, 2.0, 0.0, 0.0, 0.0, 0.0, 0.0, 1.0, 0.0, 0.0, 0.0, 0.0, 1.0, 1.0, 0.0, 1.0, 0.0, 0.0, 1.0, 1.0, 0.0, 2.0, 1.0, 1.0, 1.0, 0.0, 0.0, 0.0, 2.0, 0.0, 3.0, 0.0, 1.0, 0.0, 0.0, 1.0, 3.0, 0.0, 0.0, 1.0, 0.0, 1.0, 1.0, 0.0, 0.0, 0.0, 0.0, 0.0, 0.0, 0.0, 0.0, 1.0], "bins": [-0.39994335174560547, -0.39412257075309753, -0.3883017897605896, -0.38248103857040405, -0.3766602575778961, -0.3708394765853882, -0.36501869559288025, -0.3591979444026947, -0.35337716341018677, -0.34755638241767883, -0.3417356014251709, -0.33591482043266296, -0.3300940692424774, -0.3242732882499695, -0.31845250725746155, -0.3126317262649536, -0.30681097507476807, -0.30099019408226013, -0.2951694130897522, -0.28934863209724426, -0.28352785110473633, -0.2777070999145508, -0.27188631892204285, -0.2660655379295349, -0.260244756937027, -0.25442397594451904, -0.2486032098531723, -0.24278244376182556, -0.23696166276931763, -0.2311408966779709, -0.22532011568546295, -0.2194993495941162, -0.21367856860160828, -0.20785778760910034, -0.2020370215177536, -0.19621624052524567, -0.19039547443389893, -0.184574693441391, -0.17875391244888306, -0.17293314635753632, -0.16711236536502838, -0.16129159927368164, -0.1554708182811737, -0.14965005218982697, -0.14382927119731903, -0.1380084902048111, -0.13218772411346436, -0.12636694312095642, -0.12054617702960968, -0.11472539603710175, -0.10890462249517441, -0.10308384895324707, -0.09726307541131973, -0.0914423018693924, -0.08562152832746506, -0.07980075478553772, -0.07397997379302979, -0.06815920025110245, -0.06233842670917511, -0.05651765316724777, -0.050696879625320435, -0.0448761060833931, -0.03905533254146576, -0.03323455527424812, -0.027413781732320786]}, "parameters/graph_3conv2.weight": {"_type": "histogram", "values": [1.0, 0.0, 0.0, 0.0, 1.0, 1.0, 3.0, 4.0, 10.0, 6.0, 7.0, 19.0, 35.0, 38.0, 58.0, 72.0, 86.0, 122.0, 187.0, 220.0, 307.0, 347.0, 463.0, 575.0, 684.0, 842.0, 985.0, 1179.0, 1453.0, 1676.0, 2024.0, 2444.0, 3008.0, 3852.0, 4540.0, 4429.0, 4274.0, 3817.0, 2836.0, 2145.0, 1776.0, 1509.0, 1249.0, 1024.0, 813.0, 589.0, 456.0, 306.0, 255.0, 162.0, 114.0, 79.0, 39.0, 30.0, 11.0, 12.0, 12.0, 6.0, 3.0, 2.0, 2.0, 0.0, 0.0, 1.0], "bins": [-0.49632740020751953, -0.48267078399658203, -0.46901416778564453, -0.45535752177238464, -0.44170090556144714, -0.42804428935050964, -0.41438767313957214, -0.40073105692863464, -0.38707441091537476, -0.37341779470443726, -0.35976117849349976, -0.34610456228256226, -0.33244794607162476, -0.31879132986068726, -0.30513468384742737, -0.29147806763648987, -0.27782145142555237, -0.26416483521461487, -0.25050821900367737, -0.23685158789157867, -0.22319495677947998, -0.20953834056854248, -0.19588172435760498, -0.1822250932455063, -0.1685684770345688, -0.1549118608236313, -0.1412552297115326, -0.1275986135005951, -0.113941989839077, -0.1002853661775589, -0.0866287499666214, -0.0729721263051033, -0.05931553244590759, -0.045658908784389496, -0.0320022888481617, -0.01834566704928875, -0.004689045250415802, 0.008967576548457146, 0.022624198347330093, 0.03628081828355789, 0.04993744194507599, 0.06359406560659409, 0.07725068926811218, 0.09090730547904968, 0.10456392914056778, 0.11822055280208588, 0.13187716901302338, 0.14553380012512207, 0.15919041633605957, 0.17284703254699707, 0.18650366365909576, 0.20016027987003326, 0.21381691098213196, 0.22747352719306946, 0.24113014340400696, 0.25478675961494446, 0.26844340562820435, 0.28210002183914185, 0.29575663805007935, 0.30941325426101685, 0.32306987047195435, 0.33672648668289185, 0.35038313269615173, 0.36403974890708923, 0.37769636511802673]}, "parameters/graph_3conv2.bias": {"_type": "histogram", "values": [2.0, 0.0, 0.0, 0.0, 2.0, 2.0, 0.0, 1.0, 0.0, 1.0, 1.0, 2.0, 1.0, 2.0, 0.0, 1.0, 1.0, 2.0, 2.0, 2.0, 4.0, 2.0, 1.0, 2.0, 1.0, 0.0, 2.0, 1.0, 1.0, 7.0, 2.0, 1.0, 2.0, 1.0, 5.0, 0.0, 4.0, 0.0, 1.0, 0.0, 0.0, 0.0, 1.0, 0.0, 0.0, 1.0, 1.0, 1.0, 0.0, 0.0, 0.0, 0.0, 0.0, 0.0, 0.0, 0.0, 0.0, 0.0, 0.0, 0.0, 0.0, 0.0, 0.0, 1.0], "bins": [-0.10031524300575256, -0.09763377904891968, -0.09495231509208679, -0.0922708511352539, -0.08958938717842102, -0.08690793067216873, -0.08422646671533585, -0.08154500275850296, -0.07886353880167007, -0.07618207484483719, -0.0735006108880043, -0.07081914693117142, -0.06813769042491913, -0.06545622646808624, -0.06277476251125336, -0.06009329855442047, -0.057411834597587585, -0.0547303706407547, -0.052048906683921814, -0.04936744645237923, -0.04668598249554634, -0.044004518538713455, -0.04132305830717087, -0.03864159435033798, -0.035960130393505096, -0.03327866643667221, -0.030597204342484474, -0.027915742248296738, -0.025234278291463852, -0.022552814334630966, -0.01987135224044323, -0.017189890146255493, -0.014508426189422607, -0.011826963163912296, -0.009145500138401985, -0.006464037112891674, -0.003782574087381363, -0.0011011110618710518, 0.0015803519636392593, 0.0042618149891495705, 0.006943278014659882, 0.009624741040170193, 0.012306204065680504, 0.014987667091190815, 0.017669130116701126, 0.020350594073534012, 0.02303205616772175, 0.025713518261909485, 0.02839498221874237, 0.031076446175575256, 0.03375791013240814, 0.03643937036395073, 0.039120834320783615, 0.0418022982776165, 0.04448375850915909, 0.047165222465991974, 0.04984668642282486, 0.052528150379657745, 0.05520961433649063, 0.05789107456803322, 0.060572538524866104, 0.06325399875640869, 0.06593546271324158, 0.06861692667007446, 0.07129839062690735]}, "parameters/graph_3fc1.weight": {"_type": "histogram", "values": [1.0, 3.0, 1.0, 4.0, 2.0, 6.0, 12.0, 6.0, 16.0, 26.0, 38.0, 23.0, 64.0, 73.0, 111.0, 148.0, 224.0, 274.0, 394.0, 486.0, 609.0, 838.0, 999.0, 1282.0, 1641.0, 2083.0, 2538.0, 3235.0, 4454.0, 5574.0, 9654.0, 14563.0, 15323.0, 15073.0, 14273.0, 9900.0, 5606.0, 4467.0, 3722.0, 3084.0, 2433.0, 1899.0, 1486.0, 1169.0, 924.0, 645.0, 469.0, 374.0, 263.0, 160.0, 119.0, 91.0, 65.0, 44.0, 33.0, 20.0, 22.0, 4.0, 5.0, 8.0, 3.0, 3.0, 2.0, 1.0], "bins": [-0.4224269986152649, -0.4097595512866974, -0.3970921039581299, -0.3844246566295624, -0.3717572093009949, -0.35908976197242737, -0.34642231464385986, -0.33375486731529236, -0.32108741998672485, -0.30842000246047974, -0.29575255513191223, -0.2830851078033447, -0.2704176604747772, -0.2577502131462097, -0.2450827658176422, -0.2324153184890747, -0.2197478711605072, -0.2070804238319397, -0.1944129765033722, -0.1817455291748047, -0.16907808184623718, -0.15641064941883087, -0.14374320209026337, -0.13107575476169586, -0.11840830743312836, -0.10574086010456085, -0.09307341277599335, -0.08040597289800644, -0.06773852556943893, -0.05507107824087143, -0.04240363463759422, -0.029736189171671867, -0.0170687735080719, -0.004401328042149544, 0.008266117423772812, 0.020933562889695168, 0.03360100835561752, 0.04626845568418503, 0.058935899287462234, 0.07160334289073944, 0.08427079021930695, 0.09693823754787445, 0.10960568487644196, 0.12227312475442886, 0.13494056463241577, 0.14760801196098328, 0.16027545928955078, 0.1729429066181183, 0.1856103539466858, 0.1982778012752533, 0.2109452486038208, 0.2236126959323883, 0.2362801432609558, 0.24894757568836212, 0.2616150379180908, 0.2742824852466583, 0.28694993257522583, 0.29961735010147095, 0.31228479743003845, 0.32495224475860596, 0.33761969208717346, 0.35028713941574097, 0.36295458674430847, 0.375622034072876, 0.3882894814014435]}, "parameters/graph_3fc1.bias": {"_type": "histogram", "values": [2.0, 1.0, 0.0, 1.0, 1.0, 0.0, 2.0, 0.0, 0.0, 1.0, 0.0, 0.0, 2.0, 0.0, 2.0, 0.0, 2.0, 2.0, 4.0, 3.0, 3.0, 4.0, 1.0, 4.0, 6.0, 5.0, 7.0, 7.0, 7.0, 4.0, 5.0, 5.0, 2.0, 2.0, 3.0, 1.0, 2.0, 6.0, 3.0, 4.0, 2.0, 2.0, 3.0, 2.0, 3.0, 1.0, 1.0, 0.0, 1.0, 3.0, 1.0, 0.0, 0.0, 0.0, 0.0, 2.0, 1.0, 0.0, 1.0, 0.0, 0.0, 0.0, 0.0, 1.0], "bins": [-0.09435819834470749, -0.09131523221731186, -0.08827225863933563, -0.08522929251194, -0.08218631893396378, -0.07914335280656815, -0.07610037922859192, -0.07305741310119629, -0.07001444697380066, -0.06697147339582443, -0.0639285072684288, -0.060885533690452576, -0.057842567563056946, -0.05479959771037102, -0.05175662785768509, -0.04871365800499916, -0.04567068815231323, -0.042627718299627304, -0.039584748446941376, -0.03654177859425545, -0.03349880874156952, -0.03045584075152874, -0.02741287276148796, -0.024369902908802032, -0.021326933056116104, -0.018283963203430176, -0.015240994282066822, -0.012198025360703468, -0.00915505550801754, -0.006112086120992899, -0.003069116733968258, -2.6147346943616867e-05, 0.003016822040081024, 0.006059791427105665, 0.009102760814130306, 0.01214572973549366, 0.015188699588179588, 0.018231669440865517, 0.021274637430906296, 0.024317607283592224, 0.027360577136278152, 0.03040354698896408, 0.03344651684165001, 0.03648948669433594, 0.03953245282173157, 0.042575422674417496, 0.045618392527103424, 0.04866136237978935, 0.05170433223247528, 0.05474730208516121, 0.05779027193784714, 0.060833241790533066, 0.063876211643219, 0.06691917777061462, 0.06996215134859085, 0.07300511747598648, 0.07604809105396271, 0.07909105718135834, 0.08213402330875397, 0.0851769968867302, 0.08821996301412582, 0.09126293659210205, 0.09430590271949768, 0.09734887629747391, 0.10039184242486954]}, "parameters/graph_3fc2.weight": {"_type": "histogram", "values": [1.0, 0.0, 0.0, 0.0, 1.0, 1.0, 1.0, 2.0, 2.0, 1.0, 2.0, 4.0, 4.0, 7.0, 6.0, 7.0, 8.0, 12.0, 6.0, 14.0, 12.0, 7.0, 19.0, 11.0, 15.0, 12.0, 17.0, 18.0, 23.0, 21.0, 23.0, 17.0, 30.0, 32.0, 30.0, 38.0, 32.0, 30.0, 40.0, 48.0, 39.0, 53.0, 36.0, 59.0, 66.0, 48.0, 56.0, 61.0, 48.0, 42.0, 46.0, 42.0, 29.0, 23.0, 28.0, 20.0, 13.0, 5.0, 3.0, 2.0, 1.0, 1.0, 1.0, 4.0], "bins": [-0.37496882677078247, -0.3659880459308624, -0.35700723528862, -0.34802645444869995, -0.3390456438064575, -0.3300648629665375, -0.32108408212661743, -0.312103271484375, -0.30312249064445496, -0.2941416800022125, -0.2851608991622925, -0.27618011832237244, -0.26719930768013, -0.25821852684020996, -0.24923773109912872, -0.24025693535804749, -0.23127613961696625, -0.222295343875885, -0.21331454813480377, -0.20433376729488373, -0.1953529715538025, -0.18637217581272125, -0.17739138007164001, -0.16841058433055878, -0.15942978858947754, -0.1504490077495575, -0.14146821200847626, -0.13248741626739502, -0.12350662052631378, -0.11452583223581314, -0.1055450364947319, -0.09656424820423126, -0.08758346736431122, -0.07860267162322998, -0.06962188333272934, -0.0606410875916481, -0.05166029557585716, -0.04267950356006622, -0.033698707818984985, -0.024717915803194046, -0.015737123787403107, -0.006756330840289593, 0.002224462106823921, 0.011205255053937435, 0.02018604800105095, 0.02916684001684189, 0.038147635757923126, 0.047128427773714066, 0.056109219789505005, 0.06509001553058624, 0.07407080382108688, 0.08305159956216812, 0.09203238785266876, 0.10101318359375, 0.10999397933483124, 0.11897476762533188, 0.12795555591583252, 0.13693635165691376, 0.145917147397995, 0.15489794313907623, 0.16387873888015747, 0.1728595346212387, 0.18184031546115875, 0.19082111120224, 0.19980190694332123]}, "parameters/graph_3fc2.bias": {"_type": "histogram", "values": [1.0, 0.0, 0.0, 0.0, 0.0, 0.0, 0.0, 0.0, 0.0, 0.0, 0.0, 0.0, 0.0, 0.0, 0.0, 0.0, 0.0, 1.0, 0.0, 0.0, 0.0, 0.0, 0.0, 0.0, 0.0, 0.0, 0.0, 0.0, 0.0, 0.0, 1.0, 0.0, 0.0, 0.0, 0.0, 0.0, 0.0, 0.0, 0.0, 0.0, 0.0, 0.0, 0.0, 0.0, 1.0, 0.0, 0.0, 1.0, 0.0, 0.0, 0.0, 1.0, 0.0, 0.0, 0.0, 0.0, 0.0, 1.0, 0.0, 1.0, 0.0, 0.0, 1.0, 1.0], "bins": [-0.0979553833603859, -0.09578052163124084, -0.0936056524515152, -0.09143079072237015, -0.0892559289932251, -0.08708105981349945, -0.0849061980843544, -0.08273133635520935, -0.0805564671754837, -0.07838160544633865, -0.0762067437171936, -0.07403188198804855, -0.0718570128083229, -0.06968215107917786, -0.0675072893500328, -0.06533242017030716, -0.06315755844116211, -0.06098269298672676, -0.05880783125758171, -0.05663296580314636, -0.05445810407400131, -0.052283238619565964, -0.050108373165130615, -0.047933511435985565, -0.04575864598155022, -0.04358378052711487, -0.04140891879796982, -0.03923405334353447, -0.03705918788909912, -0.03488432615995407, -0.03270946070551872, -0.030534597113728523, -0.028359726071357727, -0.026184862479567528, -0.02400999888777733, -0.02183513343334198, -0.01966026984155178, -0.01748540624976158, -0.015310541726648808, -0.013135677203536034, -0.010960813611745834, -0.008785950019955635, -0.006611085496842861, -0.004436221439391375, -0.002261357381939888, -8.649332448840141e-05, 0.002088370732963085, 0.004263234790414572, 0.006438098847866058, 0.008612962439656258, 0.010787826962769032, 0.012962691485881805, 0.015137555077672005, 0.017312418669462204, 0.019487284123897552, 0.021662147715687752, 0.02383701130747795, 0.02601187489926815, 0.02818673849105835, 0.030361603945493698, 0.03253646939992905, 0.0347113311290741, 0.036886196583509445, 0.039061058312654495, 0.041235923767089844]}, "gradients/graph_3fc2.bias": {"_type": "histogram", "values": [1.0, 0.0, 0.0, 0.0, 0.0, 0.0, 0.0, 0.0, 0.0, 0.0, 0.0, 0.0, 0.0, 0.0, 0.0, 0.0, 0.0, 0.0, 0.0, 0.0, 0.0, 0.0, 0.0, 0.0, 0.0, 0.0, 0.0, 0.0, 0.0, 0.0, 0.0, 0.0, 0.0, 0.0, 1.0, 5.0, 0.0, 0.0, 0.0, 1.0, 0.0, 1.0, 0.0, 0.0, 0.0, 0.0, 0.0, 0.0, 0.0, 0.0, 0.0, 0.0, 0.0, 0.0, 0.0, 0.0, 0.0, 0.0, 0.0, 0.0, 0.0, 0.0, 0.0, 1.0], "bins": [-0.00015693213208578527, -0.000152559470734559, -0.00014818682393524796, -0.0001438141625840217, -0.00013944151578471065, -0.00013506885443348438, -0.0001306961930822581, -0.00012632354628294706, -0.0001219508849317208, -0.00011757823085645214, -0.00011320557678118348, -0.00010883292270591483, -0.00010446026863064617, -0.00010008761455537751, -9.571495320415124e-05, -9.134229912888259e-05, -8.696964505361393e-05, -8.259699097834527e-05, -7.822433690307662e-05, -7.385167555185035e-05, -6.947902147658169e-05, -6.510636740131304e-05, -6.073371332604438e-05, -5.636105561279692e-05, -5.198840153752826e-05, -4.7615747462259606e-05, -4.324308974901214e-05, -3.8870435673743486e-05, -3.449778159847483e-05, -3.0125123885227367e-05, -2.575246980995871e-05, -2.1379813915700652e-05, -1.7007158021442592e-05, -1.2634502127184533e-05, -8.261847142421175e-06, -3.889191702910466e-06, 4.834637366002426e-07, 4.856119176110951e-06, 9.22877461562166e-06, 1.3601429600385018e-05, 1.7974085494643077e-05, 2.2346741388901137e-05, 2.6719397283159196e-05, 3.109205135842785e-05, 3.546470543369651e-05, 3.983736314694397e-05, 4.421001722221263e-05, 4.858267493546009e-05, 5.295532901072875e-05, 5.73279830859974e-05, 6.170063716126606e-05, 6.607329851249233e-05, 7.044595258776098e-05, 7.481860666302964e-05, 7.91912607382983e-05, 8.356391481356695e-05, 8.793656888883561e-05, 9.230923024006188e-05, 9.668188431533054e-05, 0.00010105453839059919, 0.00010542719246586785, 0.0001097998465411365, 0.00011417250789236277, 0.00011854516196763143, 0.00012291781604290009]}, "gradients/graph_3fc2.weight": {"_type": "histogram", "values": [2.0, 0.0, 0.0, 0.0, 0.0, 0.0, 0.0, 1.0, 1.0, 0.0, 0.0, 1.0, 2.0, 0.0, 0.0, 1.0, 1.0, 1.0, 0.0, 0.0, 2.0, 3.0, 1.0, 0.0, 3.0, 1.0, 3.0, 1.0, 2.0, 6.0, 2.0, 5.0, 4.0, 6.0, 61.0, 1076.0, 34.0, 15.0, 10.0, 3.0, 7.0, 3.0, 4.0, 3.0, 2.0, 0.0, 0.0, 1.0, 2.0, 0.0, 1.0, 2.0, 0.0, 1.0, 1.0, 1.0, 1.0, 0.0, 0.0, 0.0, 1.0, 1.0, 0.0, 1.0], "bins": [-0.002687869593501091, -0.0026112578343600035, -0.002534646075218916, -0.0024580343160778284, -0.002381422556936741, -0.0023048107977956533, -0.002228199038654566, -0.0021515872795134783, -0.0020749755203723907, -0.0019983635284006596, -0.0019217518856748939, -0.0018451401265338063, -0.001768528250977397, -0.0016919164918363094, -0.001615304732695222, -0.0015386929735541344, -0.0014620812144130468, -0.0013854694552719593, -0.0013088576961308718, -0.0012322459369897842, -0.0011556341778486967, -0.0010790223022922873, -0.0010024105431511998, -0.0009257987840101123, -0.0008491870248690248, -0.0007725752657279372, -0.0006959635065868497, -0.0006193516892381012, -0.0005427399300970137, -0.0004661281709559262, -0.0003895163827110082, -0.0003129045944660902, -0.00023629306815564632, -0.00015968129446264356, -8.30695207696408e-05, -6.457747076638043e-06, 7.015402661636472e-05, 0.00014676580030936748, 0.00022337757400237024, 0.0002999893622472882, 0.00037660112138837576, 0.0004532128805294633, 0.0005298246396705508, 0.0006064364570192993, 0.0006830482161603868, 0.0007596599753014743, 0.0008362717926502228, 0.0009128835517913103, 0.0009894953109323978, 0.0010661070700734854, 0.001142718829214573, 0.0012193305883556604, 0.001295942347496748, 0.0013725542230531573, 0.0014491659821942449, 0.0015257777413353324, 0.00160238950047642, 0.0016790012596175075, 0.001755613018758595, 0.0018322247778996825, 0.0019088366534560919, 0.0019854484125971794, 0.002062060171738267, 0.0021386719308793545, 0.002215283690020442]}, "gradients/graph_3fc1.bias": {"_type": "histogram", "values": [1.0, 0.0, 1.0, 0.0, 0.0, 2.0, 0.0, 1.0, 1.0, 0.0, 0.0, 0.0, 0.0, 0.0, 0.0, 0.0, 0.0, 1.0, 2.0, 1.0, 0.0, 0.0, 1.0, 2.0, 1.0, 2.0, 2.0, 2.0, 3.0, 2.0, 3.0, 1.0, 0.0, 3.0, 5.0, 6.0, 64.0, 3.0, 4.0, 1.0, 0.0, 0.0, 1.0, 2.0, 1.0, 0.0, 0.0, 0.0, 0.0, 0.0, 2.0, 0.0, 0.0, 0.0, 2.0, 0.0, 0.0, 0.0, 0.0, 1.0, 1.0, 2.0, 0.0, 1.0], "bins": [-4.5681154006160796e-05, -4.444265505298972e-05, -4.320415246183984e-05, -4.1965653508668765e-05, -4.072715455549769e-05, -3.948865196434781e-05, -3.8250153011176735e-05, -3.701165405800566e-05, -3.5773155104834586e-05, -3.4534652513684705e-05, -3.329615356051363e-05, -3.2057654607342556e-05, -3.0819152016192675e-05, -2.95806530630216e-05, -2.8342152290861122e-05, -2.7103653337690048e-05, -2.586515256552957e-05, -2.4626651793369092e-05, -2.3388152840198018e-05, -2.214965206803754e-05, -2.0911153114866465e-05, -1.9672652342705987e-05, -1.843415157054551e-05, -1.7195652617374435e-05, -1.5957151845213957e-05, -1.4718651982548181e-05, -1.3480152119882405e-05, -1.2241651347721927e-05, -1.100315148505615e-05, -9.764651622390375e-06, -8.526150850229897e-06, -7.2876509875641204e-06, -6.049147486919537e-06, -4.810647624253761e-06, -3.572147306840634e-06, -2.3336472168011824e-06, -1.0951471267617308e-06, 1.4335296327772085e-07, 1.3818530533171725e-06, 2.620353143356624e-06, 3.858853233396076e-06, 5.097353096061852e-06, 6.335853413474979e-06, 7.574353730888106e-06, 8.812853593553882e-06, 1.0051353456219658e-05, 1.1289854228380136e-05, 1.2528354091045912e-05, 1.3766853953711689e-05, 1.5005353816377465e-05, 1.624385367904324e-05, 1.748235445120372e-05, 1.8720853404374793e-05, 1.995935417653527e-05, 2.119785494869575e-05, 2.2436353901866823e-05, 2.36748546740273e-05, 2.491335544618778e-05, 2.6151854399358854e-05, 2.739035517151933e-05, 2.862885594367981e-05, 2.9867354896850884e-05, 3.110585385002196e-05, 3.234435644117184e-05, 3.3582855394342914e-05]}, "gradients/graph_3fc1.weight": {"_type": "histogram", "values": [3.0, 0.0, 0.0, 2.0, 0.0, 1.0, 4.0, 3.0, 5.0, 5.0, 1.0, 6.0, 3.0, 11.0, 11.0, 13.0, 11.0, 10.0, 18.0, 19.0, 17.0, 26.0, 38.0, 42.0, 42.0, 72.0, 69.0, 98.0, 110.0, 166.0, 167.0, 265.0, 318.0, 500.0, 791.0, 1426.0, 4465.0, 119928.0, 800.0, 399.0, 259.0, 176.0, 183.0, 119.0, 85.0, 71.0, 48.0, 60.0, 43.0, 29.0, 35.0, 9.0, 16.0, 15.0, 14.0, 3.0, 11.0, 11.0, 9.0, 2.0, 3.0, 1.0, 1.0, 4.0], "bins": [-0.0004749609506689012, -0.0004621986881829798, -0.00044943642569705844, -0.0004366741923149675, -0.00042391192982904613, -0.00041114966734312475, -0.00039838740485720336, -0.00038562517147511244, -0.00037286290898919106, -0.00036010064650326967, -0.0003473383840173483, -0.0003345761215314269, -0.000321813888149336, -0.0003090516256634146, -0.0002962893631774932, -0.00028352710069157183, -0.0002707648673094809, -0.0002580026048235595, -0.00024524034233763814, -0.00023247807985171676, -0.0002197158319177106, -0.00020695356943178922, -0.00019419132149778306, -0.00018142905901186168, -0.0001686667965259403, -0.00015590454859193414, -0.00014314228610601276, -0.0001303800381720066, -0.00011761777568608522, -0.00010485552047612146, -9.209326526615769e-05, -7.933101005619392e-05, -6.656875484623015e-05, -5.380649963626638e-05, -4.104424442630261e-05, -2.8281985578360036e-05, -1.5519730368396267e-05, -2.757474248937797e-06, 1.0004781870520674e-05, 2.2767038899473846e-05, 3.5529294109437615e-05, 4.8291549319401383e-05, 6.105380452936515e-05, 7.381605973932892e-05, 8.65783222252503e-05, 9.934057743521407e-05, 0.00011210283264517784, 0.000124865080579184, 0.00013762734306510538, 0.00015038960555102676, 0.00016315185348503292, 0.0001759141159709543, 0.00018867636390496045, 0.00020143862639088184, 0.000214200874324888, 0.00022696313681080937, 0.00023972539929673076, 0.00025248766178265214, 0.00026524989516474307, 0.00027801215765066445, 0.00029077442013658583, 0.0003035366826225072, 0.00031629891600459814, 0.0003290611784905195, 0.0003418234409764409]}, "gradients/graph_3conv2.weight": {"_type": "histogram", "values": [1.0, 0.0, 0.0, 1.0, 2.0, 1.0, 1.0, 2.0, 3.0, 6.0, 4.0, 3.0, 4.0, 12.0, 3.0, 12.0, 12.0, 10.0, 17.0, 17.0, 21.0, 28.0, 39.0, 49.0, 50.0, 75.0, 87.0, 110.0, 167.0, 233.0, 294.0, 420.0, 657.0, 1022.0, 1639.0, 3309.0, 31389.0, 6293.0, 2168.0, 1149.0, 593.0, 420.0, 268.0, 195.0, 110.0, 90.0, 68.0, 46.0, 30.0, 20.0, 11.0, 13.0, 6.0, 5.0, 4.0, 2.0, 0.0, 3.0, 1.0, 2.0, 0.0, 2.0, 0.0, 1.0], "bins": [-0.0003661064838524908, -0.00035617276444099844, -0.0003462390450295061, -0.00033630532561801374, -0.0003263716062065214, -0.00031643788679502904, -0.0003065041673835367, -0.00029657044797204435, -0.00028663675766438246, -0.0002767030382528901, -0.00026676931884139776, -0.0002568355994299054, -0.00024690188001841307, -0.00023696816060692072, -0.00022703444119542837, -0.00021710072178393602, -0.00020716700237244368, -0.00019723328296095133, -0.00018729956354945898, -0.00017736584413796663, -0.00016743212472647429, -0.00015749841986689717, -0.00014756470045540482, -0.00013763098104391247, -0.00012769726163242012, -0.00011776354222092777, -0.00010782982280943543, -9.78961106739007e-05, -8.796239126240835e-05, -7.8028671850916e-05, -6.809495971538126e-05, -5.816124030388892e-05, -4.822749178856611e-05, -3.8293772377073765e-05, -2.8360056603560224e-05, -1.842633901105728e-05, -8.492621418554336e-06, 1.4410961739486083e-06, 1.1374813766451553e-05, 2.1308531358954497e-05, 3.124224895145744e-05, 4.117596836294979e-05, 5.110968413646333e-05, 6.104339990997687e-05, 7.097711932146922e-05, 8.091083873296157e-05, 9.08445508684963e-05, 0.00010077827027998865, 0.000110711989691481, 0.00012064570910297334, 0.0001305794285144657, 0.00014051314792595804, 0.00015044686733745039, 0.0001603805721970275, 0.00017031429160851985, 0.0001802480110200122, 0.00019018173043150455, 0.0002001154498429969, 0.00021004916925448924, 0.0002199828886659816, 0.0002299165935255587, 0.00023985031293705106, 0.0002497840323485434, 0.00025971775176003575, 0.0002696514711715281]}, "gradients/graph_3conv2.bias": {"_type": "histogram", "values": [1.0, 0.0, 0.0, 0.0, 0.0, 0.0, 0.0, 0.0, 0.0, 0.0, 0.0, 1.0, 0.0, 0.0, 0.0, 0.0, 1.0, 0.0, 0.0, 0.0, 0.0, 0.0, 0.0, 0.0, 2.0, 1.0, 1.0, 0.0, 0.0, 1.0, 0.0, 1.0, 0.0, 0.0, 1.0, 0.0, 2.0, 0.0, 0.0, 0.0, 3.0, 4.0, 2.0, 5.0, 18.0, 2.0, 2.0, 2.0, 3.0, 1.0, 1.0, 0.0, 1.0, 1.0, 0.0, 0.0, 0.0, 2.0, 1.0, 2.0, 0.0, 0.0, 1.0, 1.0], "bins": [-0.00017144487355835736, -0.00016760313883423805, -0.00016376138955820352, -0.0001599196548340842, -0.00015607790555804968, -0.00015223617083393037, -0.00014839443610981107, -0.00014455268683377653, -0.00014071095210965723, -0.00013686921738553792, -0.0001330274681095034, -0.00012918573338538408, -0.00012534399866126478, -0.00012150224938523024, -0.00011766051466111094, -0.00011381877266103402, -0.0001099770306609571, -0.00010613528866088018, -0.00010229354666080326, -9.845181193668395e-05, -9.461006993660703e-05, -9.076832793653011e-05, -8.692659321241081e-05, -8.308485121233389e-05, -7.924310921225697e-05, -7.540136721218005e-05, -7.155962521210313e-05, -6.771789048798382e-05, -6.38761484879069e-05, -6.003440648782998e-05, -5.619266812573187e-05, -5.235092976363376e-05, -4.850918776355684e-05, -4.466744576347992e-05, -4.0825707401381806e-05, -3.698396903928369e-05, -3.314222703920677e-05, -2.9300486858119257e-05, -2.545874667703174e-05, -2.1617006495944224e-05, -1.7775266314856708e-05, -1.3933526133769192e-05, -1.0091785952681676e-05, -6.250045771594159e-06, -2.408305590506643e-06, 1.4334345905808732e-06, 5.2751747716683894e-06, 9.116914952755906e-06, 1.2958655133843422e-05, 1.6800395314930938e-05, 2.0642135496018454e-05, 2.448387567710597e-05, 2.8325615858193487e-05, 3.216735785827041e-05, 3.600909622036852e-05, 3.985083458246663e-05, 4.369257658254355e-05, 4.753431858262047e-05, 5.1376056944718584e-05, 5.52177953068167e-05, 5.905953730689362e-05, 6.290127930697054e-05, 6.674301403108984e-05, 7.058475603116676e-05, 7.442649803124368e-05]}, "gradients/graph_3conv1.weight": {"_type": "histogram", "values": [1.0, 0.0, 0.0, 0.0, 0.0, 0.0, 0.0, 0.0, 1.0, 0.0, 0.0, 0.0, 0.0, 2.0, 0.0, 2.0, 2.0, 1.0, 1.0, 1.0, 2.0, 5.0, 8.0, 7.0, 7.0, 4.0, 7.0, 13.0, 8.0, 15.0, 15.0, 19.0, 23.0, 27.0, 24.0, 35.0, 25.0, 23.0, 41.0, 45.0, 49.0, 55.0, 47.0, 40.0, 46.0, 28.0, 29.0, 19.0, 26.0, 14.0, 16.0, 15.0, 9.0, 8.0, 7.0, 8.0, 3.0, 3.0, 2.0, 4.0, 3.0, 0.0, 3.0, 2.0], "bins": [-0.0007634578505530953, -0.0007443936192430556, -0.0007253294461406767, -0.000706265214830637, -0.0006872009835205972, -0.0006681368104182184, -0.0006490725791081786, -0.0006300083477981389, -0.0006109441164880991, -0.0005918799433857203, -0.0005728157120756805, -0.0005537514807656407, -0.0005346873076632619, -0.0005156230763532221, -0.0004965588450431824, -0.00047749464283697307, -0.00045843044063076377, -0.00043936623842455447, -0.0004203020071145147, -0.0004012378049083054, -0.00038217357359826565, -0.00036310937139205635, -0.00034404516918584704, -0.0003249809378758073, -0.000305916735669598, -0.0002868525334633887, -0.0002677883021533489, -0.0002487240999471396, -0.0002296598831890151, -0.00021059566643089056, -0.00019153146422468126, -0.00017246724746655673, -0.0001534030889160931, -0.00013433887215796858, -0.00011527466267580166, -9.621045319363475e-05, -7.714623643551022e-05, -5.8082023315364495e-05, -3.901781019521877e-05, -1.995359707507305e-05, -8.893839549273252e-07, 1.8174829165218398e-05, 3.723904228536412e-05, 5.6303255405509844e-05, 7.536746852565557e-05, 9.44316852837801e-05, 0.00011349589476594701, 0.00013256010424811393, 0.00015162432100623846, 0.000170688537764363, 0.00018975275452248752, 0.00020881695672869682, 0.00022788117348682135, 0.0002469453902449459, 0.0002660095924511552, 0.00028507382376119494, 0.00030413802596740425, 0.00032320222817361355, 0.0003422664594836533, 0.0003613306616898626, 0.0003803948638960719, 0.00039945909520611167, 0.00041852329741232097, 0.00043758752872236073, 0.00045665173092857003]}, "gradients/graph_3conv1.bias": {"_type": "histogram", "values": [1.0, 0.0, 0.0, 0.0, 0.0, 0.0, 0.0, 0.0, 0.0, 0.0, 0.0, 0.0, 0.0, 1.0, 0.0, 0.0, 0.0, 0.0, 1.0, 0.0, 0.0, 1.0, 1.0, 0.0, 0.0, 0.0, 0.0, 3.0, 1.0, 0.0, 1.0, 1.0, 0.0, 1.0, 3.0, 2.0, 1.0, 1.0, 0.0, 0.0, 0.0, 1.0, 0.0, 2.0, 1.0, 0.0, 0.0, 2.0, 0.0, 0.0, 1.0, 1.0, 1.0, 0.0, 1.0, 0.0, 0.0, 0.0, 1.0, 0.0, 0.0, 0.0, 1.0, 1.0], "bins": [-0.0005829360452480614, -0.0005669605452567339, -0.0005509851034730673, -0.0005350096034817398, -0.0005190341034904122, -0.0005030586617067456, -0.0004870831617154181, -0.00047110769082792103, -0.00045513221994042397, -0.0004391567490529269, -0.00042318127816542983, -0.0004072057781741023, -0.00039123030728660524, -0.00037525483639910817, -0.00035927933640778065, -0.0003433038655202836, -0.0003273283946327865, -0.00031135292374528944, -0.0002953774528577924, -0.00027940195286646485, -0.0002634264819789678, -0.0002474510110914707, -0.00023147552565205842, -0.00021550004021264613, -0.00019952456932514906, -0.000183549098437652, -0.0001675736129982397, -0.0001515981275588274, -0.00013562265667133033, -0.00011964717850787565, -0.00010367170034442097, -8.769622218096629e-05, -7.172068580985069e-05, -5.574520764639601e-05, -3.976972948294133e-05, -2.3794251319486648e-05, -7.818773156031966e-06, 8.156705007422715e-06, 2.4132183170877397e-05, 4.010766133433208e-05, 5.608313949778676e-05, 7.205861766124144e-05, 8.803409582469612e-05, 0.0001040095739881508, 0.00011998505215160549, 0.00013596052303910255, 0.00015193600847851485, 0.00016791149391792715, 0.0001838869648054242, 0.00019986243569292128, 0.00021583792113233358, 0.00023181340657174587, 0.00024778887745924294, 0.00026376434834674, 0.00027973984833806753, 0.0002957153192255646, 0.00031169079011306167, 0.00032766626100055873, 0.0003436417318880558, 0.0003596172318793833, 0.0003755927027668804, 0.00039156817365437746, 0.000407543673645705, 0.00042351914453320205, 0.0004394946154206991]}, "accuracy": 99.16, "_wandb": {"runtime": 228}}